digraph Tree {
node [shape=box] ;
0 [label="Region_x <= 21.5\ngini = 0.083\nsamples = 41032\nvalue = [39256, 1776]"] ;
1 [label="Segment <= 0.5\ngini = 0.081\nsamples = 38443\nvalue = [36815, 1628]"] ;
0 -> 1 [labeldistance=2.5, labelangle=45, headlabel="True"] ;
2 [label="Profit2 <= -1298.425\ngini = 0.088\nsamples = 19910\nvalue = [18997, 913]"] ;
1 -> 2 ;
3 [label="Profit2 <= -1345.82\ngini = 0.278\nsamples = 18\nvalue = [15, 3]"] ;
2 -> 3 ;
4 [label="Product.ID <= 318.0\ngini = 0.117\nsamples = 16\nvalue = [15, 1]"] ;
3 -> 4 ;
5 [label="Sales2 <= 1935.89\ngini = 0.5\nsamples = 2\nvalue = [1, 1]"] ;
4 -> 5 ;
6 [label="gini = 0.0\nsamples = 1\nvalue = [0, 1]"] ;
5 -> 6 ;
7 [label="gini = 0.0\nsamples = 1\nvalue = [1, 0]"] ;
5 -> 7 ;
8 [label="gini = 0.0\nsamples = 14\nvalue = [14, 0]"] ;
4 -> 8 ;
9 [label="gini = 0.0\nsamples = 2\nvalue = [0, 2]"] ;
3 -> 9 ;
10 [label="Sales2 <= 400.005\ngini = 0.087\nsamples = 19892\nvalue = [18982, 910]"] ;
2 -> 10 ;
11 [label="Sales2 <= 399.78\ngini = 0.09\nsamples = 16700\nvalue = [15908, 792]"] ;
10 -> 11 ;
12 [label="Profit2 <= 43.39\ngini = 0.09\nsamples = 16699\nvalue = [15908, 791]"] ;
11 -> 12 ;
13 [label="Sales2 <= 1.045\ngini = 0.087\nsamples = 14472\nvalue = [13812, 660]"] ;
12 -> 13 ;
14 [label="Shipping.Cost <= 1.12\ngini = 0.444\nsamples = 3\nvalue = [2, 1]"] ;
13 -> 14 ;
15 [label="gini = 0.0\nsamples = 2\nvalue = [2, 0]"] ;
14 -> 15 ;
16 [label="gini = 0.0\nsamples = 1\nvalue = [0, 1]"] ;
14 -> 16 ;
17 [label="Product.ID <= 3736.5\ngini = 0.087\nsamples = 14469\nvalue = [13810, 659]"] ;
13 -> 17 ;
18 [label="Product.ID <= 3735.5\ngini = 0.088\nsamples = 14366\nvalue = [13707, 659]"] ;
17 -> 18 ;
19 [label="Market <= 1.5\ngini = 0.087\nsamples = 14365\nvalue = [13707, 658]"] ;
18 -> 19 ;
20 [label="Product.ID <= 43.5\ngini = 0.096\nsamples = 5607\nvalue = [5325, 282]"] ;
19 -> 20 ;
21 [label="Profit2 <= -251.075\ngini = 0.278\nsamples = 24\nvalue = [20, 4]"] ;
20 -> 21 ;
22 [label="gini = 0.0\nsamples = 1\nvalue = [0, 1]"] ;
21 -> 22 ;
23 [label="Shipping.Cost <= 3.66\ngini = 0.227\nsamples = 23\nvalue = [20, 3]"] ;
21 -> 23 ;
24 [label="gini = 0.0\nsamples = 1\nvalue = [0, 1]"] ;
23 -> 24 ;
25 [label="Order.Priority <= 0.5\ngini = 0.165\nsamples = 22\nvalue = [20, 2]"] ;
23 -> 25 ;
26 [label="gini = 0.0\nsamples = 1\nvalue = [0, 1]"] ;
25 -> 26 ;
27 [label="Product.ID <= 42.5\ngini = 0.091\nsamples = 21\nvalue = [20, 1]"] ;
25 -> 27 ;
28 [label="gini = 0.0\nsamples = 19\nvalue = [19, 0]"] ;
27 -> 28 ;
29 [label="Order.Priority <= 2.5\ngini = 0.5\nsamples = 2\nvalue = [1, 1]"] ;
27 -> 29 ;
30 [label="gini = 0.0\nsamples = 1\nvalue = [0, 1]"] ;
29 -> 30 ;
31 [label="gini = 0.0\nsamples = 1\nvalue = [1, 0]"] ;
29 -> 31 ;
32 [label="Region_x <= 15.5\ngini = 0.095\nsamples = 5583\nvalue = [5305, 278]"] ;
20 -> 32 ;
33 [label="Order.Priority <= 2.5\ngini = 0.105\nsamples = 3559\nvalue = [3362, 197]"] ;
32 -> 33 ;
34 [label="Discount <= 0.035\ngini = 0.121\nsamples = 1565\nvalue = [1464, 101]"] ;
33 -> 34 ;
35 [label="ProcessTime <= 2.5\ngini = 0.087\nsamples = 747\nvalue = [713, 34]"] ;
34 -> 35 ;
36 [label="Product.ID <= 3665.5\ngini = 0.026\nsamples = 309\nvalue = [305, 4]"] ;
35 -> 36 ;
37 [label="Product.ID <= 650.5\ngini = 0.019\nsamples = 307\nvalue = [304, 3]"] ;
36 -> 37 ;
38 [label="Product.ID <= 643.0\ngini = 0.117\nsamples = 32\nvalue = [30, 2]"] ;
37 -> 38 ;
39 [label="Product.ID <= 613.5\ngini = 0.062\nsamples = 31\nvalue = [30, 1]"] ;
38 -> 39 ;
40 [label="gini = 0.0\nsamples = 28\nvalue = [28, 0]"] ;
39 -> 40 ;
41 [label="Order.Priority <= 0.5\ngini = 0.444\nsamples = 3\nvalue = [2, 1]"] ;
39 -> 41 ;
42 [label="gini = 0.0\nsamples = 1\nvalue = [0, 1]"] ;
41 -> 42 ;
43 [label="gini = 0.0\nsamples = 2\nvalue = [2, 0]"] ;
41 -> 43 ;
44 [label="gini = 0.0\nsamples = 1\nvalue = [0, 1]"] ;
38 -> 44 ;
45 [label="Sales2 <= 19.065\ngini = 0.007\nsamples = 275\nvalue = [274, 1]"] ;
37 -> 45 ;
46 [label="Shipping.Cost <= 5.12\ngini = 0.041\nsamples = 48\nvalue = [47, 1]"] ;
45 -> 46 ;
47 [label="gini = 0.0\nsamples = 47\nvalue = [47, 0]"] ;
46 -> 47 ;
48 [label="gini = 0.0\nsamples = 1\nvalue = [0, 1]"] ;
46 -> 48 ;
49 [label="gini = 0.0\nsamples = 227\nvalue = [227, 0]"] ;
45 -> 49 ;
50 [label="Ship.Mode <= 1.5\ngini = 0.5\nsamples = 2\nvalue = [1, 1]"] ;
36 -> 50 ;
51 [label="gini = 0.0\nsamples = 1\nvalue = [1, 0]"] ;
50 -> 51 ;
52 [label="gini = 0.0\nsamples = 1\nvalue = [0, 1]"] ;
50 -> 52 ;
53 [label="ProcessTime <= 4.5\ngini = 0.128\nsamples = 438\nvalue = [408, 30]"] ;
35 -> 53 ;
54 [label="Quantity <= 1.5\ngini = 0.168\nsamples = 302\nvalue = [274, 28]"] ;
53 -> 54 ;
55 [label="Region_x <= 14.5\ngini = 0.276\nsamples = 115\nvalue = [96, 19]"] ;
54 -> 55 ;
56 [label="Sales2 <= 28.905\ngini = 0.237\nsamples = 102\nvalue = [88, 14]"] ;
55 -> 56 ;
57 [label="Profit2 <= 9.33\ngini = 0.381\nsamples = 43\nvalue = [32, 11]"] ;
56 -> 57 ;
58 [label="Sales2 <= 5.625\ngini = 0.32\nsamples = 40\nvalue = [32, 8]"] ;
57 -> 58 ;
59 [label="gini = 0.0\nsamples = 1\nvalue = [0, 1]"] ;
58 -> 59 ;
60 [label="Sales2 <= 27.585\ngini = 0.295\nsamples = 39\nvalue = [32, 7]"] ;
58 -> 60 ;
61 [label="Ship.Mode <= 2.5\ngini = 0.266\nsamples = 38\nvalue = [32, 6]"] ;
60 -> 61 ;
62 [label="Product.ID <= 2712.0\ngini = 0.391\nsamples = 15\nvalue = [11, 4]"] ;
61 -> 62 ;
63 [label="Region_x <= 13.0\ngini = 0.337\nsamples = 14\nvalue = [11, 3]"] ;
62 -> 63 ;
64 [label="Product.ID <= 1641.5\ngini = 0.26\nsamples = 13\nvalue = [11, 2]"] ;
63 -> 64 ;
65 [label="Profit2 <= 1.98\ngini = 0.48\nsamples = 5\nvalue = [3, 2]"] ;
64 -> 65 ;
66 [label="gini = 0.0\nsamples = 2\nvalue = [0, 2]"] ;
65 -> 66 ;
67 [label="gini = 0.0\nsamples = 3\nvalue = [3, 0]"] ;
65 -> 67 ;
68 [label="gini = 0.0\nsamples = 8\nvalue = [8, 0]"] ;
64 -> 68 ;
69 [label="gini = 0.0\nsamples = 1\nvalue = [0, 1]"] ;
63 -> 69 ;
70 [label="gini = 0.0\nsamples = 1\nvalue = [0, 1]"] ;
62 -> 70 ;
71 [label="Product.ID <= 1298.0\ngini = 0.159\nsamples = 23\nvalue = [21, 2]"] ;
61 -> 71 ;
72 [label="Sales2 <= 23.46\ngini = 0.444\nsamples = 6\nvalue = [4, 2]"] ;
71 -> 72 ;
73 [label="Shipping.Cost <= 1.895\ngini = 0.32\nsamples = 5\nvalue = [4, 1]"] ;
72 -> 73 ;
74 [label="gini = 0.0\nsamples = 1\nvalue = [0, 1]"] ;
73 -> 74 ;
75 [label="gini = 0.0\nsamples = 4\nvalue = [4, 0]"] ;
73 -> 75 ;
76 [label="gini = 0.0\nsamples = 1\nvalue = [0, 1]"] ;
72 -> 76 ;
77 [label="gini = 0.0\nsamples = 17\nvalue = [17, 0]"] ;
71 -> 77 ;
78 [label="gini = 0.0\nsamples = 1\nvalue = [0, 1]"] ;
60 -> 78 ;
79 [label="gini = 0.0\nsamples = 3\nvalue = [0, 3]"] ;
57 -> 79 ;
80 [label="Shipping.Cost <= 2.56\ngini = 0.097\nsamples = 59\nvalue = [56, 3]"] ;
56 -> 80 ;
81 [label="Sales2 <= 36.315\ngini = 0.5\nsamples = 2\nvalue = [1, 1]"] ;
80 -> 81 ;
82 [label="gini = 0.0\nsamples = 1\nvalue = [0, 1]"] ;
81 -> 82 ;
83 [label="gini = 0.0\nsamples = 1\nvalue = [1, 0]"] ;
81 -> 83 ;
84 [label="Product.ID <= 3235.5\ngini = 0.068\nsamples = 57\nvalue = [55, 2]"] ;
80 -> 84 ;
85 [label="Shipping.Cost <= 4.02\ngini = 0.038\nsamples = 52\nvalue = [51, 1]"] ;
84 -> 85 ;
86 [label="Profit2 <= 11.925\ngini = 0.198\nsamples = 9\nvalue = [8, 1]"] ;
85 -> 86 ;
87 [label="gini = 0.0\nsamples = 7\nvalue = [7, 0]"] ;
86 -> 87 ;
88 [label="Sales2 <= 55.725\ngini = 0.5\nsamples = 2\nvalue = [1, 1]"] ;
86 -> 88 ;
89 [label="gini = 0.0\nsamples = 1\nvalue = [0, 1]"] ;
88 -> 89 ;
90 [label="gini = 0.0\nsamples = 1\nvalue = [1, 0]"] ;
88 -> 90 ;
91 [label="gini = 0.0\nsamples = 43\nvalue = [43, 0]"] ;
85 -> 91 ;
92 [label="Product.ID <= 3340.5\ngini = 0.32\nsamples = 5\nvalue = [4, 1]"] ;
84 -> 92 ;
93 [label="gini = 0.0\nsamples = 1\nvalue = [0, 1]"] ;
92 -> 93 ;
94 [label="gini = 0.0\nsamples = 4\nvalue = [4, 0]"] ;
92 -> 94 ;
95 [label="Ship.Mode <= 1.0\ngini = 0.473\nsamples = 13\nvalue = [8, 5]"] ;
55 -> 95 ;
96 [label="gini = 0.0\nsamples = 3\nvalue = [0, 3]"] ;
95 -> 96 ;
97 [label="Sales2 <= 101.655\ngini = 0.32\nsamples = 10\nvalue = [8, 2]"] ;
95 -> 97 ;
98 [label="gini = 0.0\nsamples = 8\nvalue = [8, 0]"] ;
97 -> 98 ;
99 [label="gini = 0.0\nsamples = 2\nvalue = [0, 2]"] ;
97 -> 99 ;
100 [label="Shipping.Cost <= 51.255\ngini = 0.092\nsamples = 187\nvalue = [178, 9]"] ;
54 -> 100 ;
101 [label="Shipping.Cost <= 1.57\ngini = 0.083\nsamples = 185\nvalue = [177, 8]"] ;
100 -> 101 ;
102 [label="Profit2 <= 6.75\ngini = 0.346\nsamples = 9\nvalue = [7, 2]"] ;
101 -> 102 ;
103 [label="gini = 0.0\nsamples = 6\nvalue = [6, 0]"] ;
102 -> 103 ;
104 [label="Product.ID <= 1634.0\ngini = 0.444\nsamples = 3\nvalue = [1, 2]"] ;
102 -> 104 ;
105 [label="gini = 0.0\nsamples = 1\nvalue = [1, 0]"] ;
104 -> 105 ;
106 [label="gini = 0.0\nsamples = 2\nvalue = [0, 2]"] ;
104 -> 106 ;
107 [label="Profit2 <= 6.03\ngini = 0.066\nsamples = 176\nvalue = [170, 6]"] ;
101 -> 107 ;
108 [label="Profit2 <= 5.94\ngini = 0.145\nsamples = 38\nvalue = [35, 3]"] ;
107 -> 108 ;
109 [label="Profit2 <= 5.595\ngini = 0.102\nsamples = 37\nvalue = [35, 2]"] ;
108 -> 109 ;
110 [label="Shipping.Cost <= 2.365\ngini = 0.059\nsamples = 33\nvalue = [32, 1]"] ;
109 -> 110 ;
111 [label="Quantity <= 3.5\ngini = 0.198\nsamples = 9\nvalue = [8, 1]"] ;
110 -> 111 ;
112 [label="gini = 0.0\nsamples = 8\nvalue = [8, 0]"] ;
111 -> 112 ;
113 [label="gini = 0.0\nsamples = 1\nvalue = [0, 1]"] ;
111 -> 113 ;
114 [label="gini = 0.0\nsamples = 24\nvalue = [24, 0]"] ;
110 -> 114 ;
115 [label="Sub.Category <= 10.0\ngini = 0.375\nsamples = 4\nvalue = [3, 1]"] ;
109 -> 115 ;
116 [label="gini = 0.0\nsamples = 3\nvalue = [3, 0]"] ;
115 -> 116 ;
117 [label="gini = 0.0\nsamples = 1\nvalue = [0, 1]"] ;
115 -> 117 ;
118 [label="gini = 0.0\nsamples = 1\nvalue = [0, 1]"] ;
108 -> 118 ;
119 [label="Sales2 <= 108.735\ngini = 0.043\nsamples = 138\nvalue = [135, 3]"] ;
107 -> 119 ;
120 [label="gini = 0.0\nsamples = 93\nvalue = [93, 0]"] ;
119 -> 120 ;
121 [label="Sales2 <= 111.21\ngini = 0.124\nsamples = 45\nvalue = [42, 3]"] ;
119 -> 121 ;
122 [label="gini = 0.0\nsamples = 3\nvalue = [0, 3]"] ;
121 -> 122 ;
123 [label="gini = 0.0\nsamples = 42\nvalue = [42, 0]"] ;
121 -> 123 ;
124 [label="Shipping.Cost <= 67.475\ngini = 0.5\nsamples = 2\nvalue = [1, 1]"] ;
100 -> 124 ;
125 [label="gini = 0.0\nsamples = 1\nvalue = [0, 1]"] ;
124 -> 125 ;
126 [label="gini = 0.0\nsamples = 1\nvalue = [1, 0]"] ;
124 -> 126 ;
127 [label="Quantity <= 8.5\ngini = 0.029\nsamples = 136\nvalue = [134, 2]"] ;
53 -> 127 ;
128 [label="Product.ID <= 354.0\ngini = 0.015\nsamples = 134\nvalue = [133, 1]"] ;
127 -> 128 ;
129 [label="Product.ID <= 340.0\ngini = 0.32\nsamples = 5\nvalue = [4, 1]"] ;
128 -> 129 ;
130 [label="gini = 0.0\nsamples = 4\nvalue = [4, 0]"] ;
129 -> 130 ;
131 [label="gini = 0.0\nsamples = 1\nvalue = [0, 1]"] ;
129 -> 131 ;
132 [label="gini = 0.0\nsamples = 129\nvalue = [129, 0]"] ;
128 -> 132 ;
133 [label="Shipping.Cost <= 10.11\ngini = 0.5\nsamples = 2\nvalue = [1, 1]"] ;
127 -> 133 ;
134 [label="gini = 0.0\nsamples = 1\nvalue = [1, 0]"] ;
133 -> 134 ;
135 [label="gini = 0.0\nsamples = 1\nvalue = [0, 1]"] ;
133 -> 135 ;
136 [label="ProcessTime <= 5.5\ngini = 0.15\nsamples = 818\nvalue = [751, 67]"] ;
34 -> 136 ;
137 [label="Ship.Mode <= 2.5\ngini = 0.137\nsamples = 744\nvalue = [689, 55]"] ;
136 -> 137 ;
138 [label="ProcessTime <= 4.5\ngini = 0.172\nsamples = 483\nvalue = [437, 46]"] ;
137 -> 138 ;
139 [label="Profit2 <= 22.475\ngini = 0.161\nsamples = 476\nvalue = [434, 42]"] ;
138 -> 139 ;
140 [label="ProcessTime <= 1.5\ngini = 0.145\nsamples = 444\nvalue = [409, 35]"] ;
139 -> 140 ;
141 [label="Profit2 <= 0.73\ngini = 0.066\nsamples = 117\nvalue = [113, 4]"] ;
140 -> 141 ;
142 [label="gini = 0.0\nsamples = 71\nvalue = [71, 0]"] ;
141 -> 142 ;
143 [label="Profit2 <= 0.825\ngini = 0.159\nsamples = 46\nvalue = [42, 4]"] ;
141 -> 143 ;
144 [label="gini = 0.0\nsamples = 1\nvalue = [0, 1]"] ;
143 -> 144 ;
145 [label="Profit2 <= 2.835\ngini = 0.124\nsamples = 45\nvalue = [42, 3]"] ;
143 -> 145 ;
146 [label="Profit2 <= 2.275\ngini = 0.375\nsamples = 8\nvalue = [6, 2]"] ;
145 -> 146 ;
147 [label="gini = 0.0\nsamples = 6\nvalue = [6, 0]"] ;
146 -> 147 ;
148 [label="gini = 0.0\nsamples = 2\nvalue = [0, 2]"] ;
146 -> 148 ;
149 [label="Profit2 <= 16.205\ngini = 0.053\nsamples = 37\nvalue = [36, 1]"] ;
145 -> 149 ;
150 [label="gini = 0.0\nsamples = 31\nvalue = [31, 0]"] ;
149 -> 150 ;
151 [label="ProcessTime <= 0.5\ngini = 0.278\nsamples = 6\nvalue = [5, 1]"] ;
149 -> 151 ;
152 [label="gini = 0.0\nsamples = 1\nvalue = [0, 1]"] ;
151 -> 152 ;
153 [label="gini = 0.0\nsamples = 5\nvalue = [5, 0]"] ;
151 -> 153 ;
154 [label="Product.ID <= 3466.5\ngini = 0.172\nsamples = 327\nvalue = [296, 31]"] ;
140 -> 154 ;
155 [label="Product.ID <= 2802.5\ngini = 0.164\nsamples = 322\nvalue = [293, 29]"] ;
154 -> 155 ;
156 [label="Product.ID <= 2782.5\ngini = 0.19\nsamples = 264\nvalue = [236, 28]"] ;
155 -> 156 ;
157 [label="Product.ID <= 2499.5\ngini = 0.179\nsamples = 261\nvalue = [235, 26]"] ;
156 -> 157 ;
158 [label="Product.ID <= 522.0\ngini = 0.158\nsamples = 232\nvalue = [212, 20]"] ;
157 -> 158 ;
159 [label="Product.ID <= 517.5\ngini = 0.298\nsamples = 33\nvalue = [27, 6]"] ;
158 -> 159 ;
160 [label="Shipping.Cost <= 14.465\ngini = 0.225\nsamples = 31\nvalue = [27, 4]"] ;
159 -> 160 ;
161 [label="Shipping.Cost <= 7.695\ngini = 0.48\nsamples = 10\nvalue = [6, 4]"] ;
160 -> 161 ;
162 [label="gini = 0.0\nsamples = 5\nvalue = [5, 0]"] ;
161 -> 162 ;
163 [label="Profit2 <= -72.555\ngini = 0.32\nsamples = 5\nvalue = [1, 4]"] ;
161 -> 163 ;
164 [label="gini = 0.0\nsamples = 1\nvalue = [1, 0]"] ;
163 -> 164 ;
165 [label="gini = 0.0\nsamples = 4\nvalue = [0, 4]"] ;
163 -> 165 ;
166 [label="gini = 0.0\nsamples = 21\nvalue = [21, 0]"] ;
160 -> 166 ;
167 [label="gini = 0.0\nsamples = 2\nvalue = [0, 2]"] ;
159 -> 167 ;
168 [label="Profit2 <= -183.025\ngini = 0.131\nsamples = 199\nvalue = [185, 14]"] ;
158 -> 168 ;
169 [label="Market <= 0.5\ngini = 0.5\nsamples = 2\nvalue = [1, 1]"] ;
168 -> 169 ;
170 [label="gini = 0.0\nsamples = 1\nvalue = [1, 0]"] ;
169 -> 170 ;
171 [label="gini = 0.0\nsamples = 1\nvalue = [0, 1]"] ;
169 -> 171 ;
172 [label="Sales2 <= 60.895\ngini = 0.123\nsamples = 197\nvalue = [184, 13]"] ;
168 -> 172 ;
173 [label="Shipping.Cost <= 14.915\ngini = 0.164\nsamples = 144\nvalue = [131, 13]"] ;
172 -> 173 ;
174 [label="Quantity <= 8.5\ngini = 0.143\nsamples = 142\nvalue = [131, 11]"] ;
173 -> 174 ;
175 [label="Sales2 <= 2.945\ngini = 0.133\nsamples = 140\nvalue = [130, 10]"] ;
174 -> 175 ;
176 [label="Quantity <= 1.5\ngini = 0.444\nsamples = 3\nvalue = [2, 1]"] ;
175 -> 176 ;
177 [label="gini = 0.0\nsamples = 2\nvalue = [2, 0]"] ;
176 -> 177 ;
178 [label="gini = 0.0\nsamples = 1\nvalue = [0, 1]"] ;
176 -> 178 ;
179 [label="Order.Priority <= 0.5\ngini = 0.123\nsamples = 137\nvalue = [128, 9]"] ;
175 -> 179 ;
180 [label="Quantity <= 5.5\ngini = 0.219\nsamples = 40\nvalue = [35, 5]"] ;
179 -> 180 ;
181 [label="Shipping.Cost <= 4.235\ngini = 0.184\nsamples = 39\nvalue = [35, 4]"] ;
180 -> 181 ;
182 [label="gini = 0.0\nsamples = 18\nvalue = [18, 0]"] ;
181 -> 182 ;
183 [label="Sales2 <= 14.82\ngini = 0.308\nsamples = 21\nvalue = [17, 4]"] ;
181 -> 183 ;
184 [label="gini = 0.0\nsamples = 1\nvalue = [0, 1]"] ;
183 -> 184 ;
185 [label="Shipping.Cost <= 4.355\ngini = 0.255\nsamples = 20\nvalue = [17, 3]"] ;
183 -> 185 ;
186 [label="gini = 0.0\nsamples = 1\nvalue = [0, 1]"] ;
185 -> 186 ;
187 [label="Quantity <= 2.5\ngini = 0.188\nsamples = 19\nvalue = [17, 2]"] ;
185 -> 187 ;
188 [label="Sales2 <= 28.13\ngini = 0.444\nsamples = 6\nvalue = [4, 2]"] ;
187 -> 188 ;
189 [label="Product.ID <= 1530.5\ngini = 0.444\nsamples = 3\nvalue = [1, 2]"] ;
188 -> 189 ;
190 [label="gini = 0.0\nsamples = 1\nvalue = [1, 0]"] ;
189 -> 190 ;
191 [label="gini = 0.0\nsamples = 2\nvalue = [0, 2]"] ;
189 -> 191 ;
192 [label="gini = 0.0\nsamples = 3\nvalue = [3, 0]"] ;
188 -> 192 ;
193 [label="gini = 0.0\nsamples = 13\nvalue = [13, 0]"] ;
187 -> 193 ;
194 [label="gini = 0.0\nsamples = 1\nvalue = [0, 1]"] ;
180 -> 194 ;
195 [label="Profit2 <= -16.87\ngini = 0.079\nsamples = 97\nvalue = [93, 4]"] ;
179 -> 195 ;
196 [label="Profit2 <= -19.1\ngini = 0.231\nsamples = 15\nvalue = [13, 2]"] ;
195 -> 196 ;
197 [label="Shipping.Cost <= 8.24\ngini = 0.133\nsamples = 14\nvalue = [13, 1]"] ;
196 -> 197 ;
198 [label="gini = 0.0\nsamples = 13\nvalue = [13, 0]"] ;
197 -> 198 ;
199 [label="gini = 0.0\nsamples = 1\nvalue = [0, 1]"] ;
197 -> 199 ;
200 [label="gini = 0.0\nsamples = 1\nvalue = [0, 1]"] ;
196 -> 200 ;
201 [label="Quantity <= 1.5\ngini = 0.048\nsamples = 82\nvalue = [80, 2]"] ;
195 -> 201 ;
202 [label="Profit2 <= 9.22\ngini = 0.18\nsamples = 20\nvalue = [18, 2]"] ;
201 -> 202 ;
203 [label="Product.ID <= 1998.0\ngini = 0.1\nsamples = 19\nvalue = [18, 1]"] ;
202 -> 203 ;
204 [label="gini = 0.0\nsamples = 16\nvalue = [16, 0]"] ;
203 -> 204 ;
205 [label="Sub.Category <= 11.0\ngini = 0.444\nsamples = 3\nvalue = [2, 1]"] ;
203 -> 205 ;
206 [label="gini = 0.0\nsamples = 1\nvalue = [0, 1]"] ;
205 -> 206 ;
207 [label="gini = 0.0\nsamples = 2\nvalue = [2, 0]"] ;
205 -> 207 ;
208 [label="gini = 0.0\nsamples = 1\nvalue = [0, 1]"] ;
202 -> 208 ;
209 [label="gini = 0.0\nsamples = 62\nvalue = [62, 0]"] ;
201 -> 209 ;
210 [label="Profit2 <= -11.44\ngini = 0.5\nsamples = 2\nvalue = [1, 1]"] ;
174 -> 210 ;
211 [label="gini = 0.0\nsamples = 1\nvalue = [1, 0]"] ;
210 -> 211 ;
212 [label="gini = 0.0\nsamples = 1\nvalue = [0, 1]"] ;
210 -> 212 ;
213 [label="gini = 0.0\nsamples = 2\nvalue = [0, 2]"] ;
173 -> 213 ;
214 [label="gini = 0.0\nsamples = 53\nvalue = [53, 0]"] ;
172 -> 214 ;
215 [label="Sub.Category <= 13.0\ngini = 0.328\nsamples = 29\nvalue = [23, 6]"] ;
157 -> 215 ;
216 [label="gini = 0.0\nsamples = 2\nvalue = [0, 2]"] ;
215 -> 216 ;
217 [label="Shipping.Cost <= 18.915\ngini = 0.252\nsamples = 27\nvalue = [23, 4]"] ;
215 -> 217 ;
218 [label="Shipping.Cost <= 1.51\ngini = 0.091\nsamples = 21\nvalue = [20, 1]"] ;
217 -> 218 ;
219 [label="gini = 0.0\nsamples = 1\nvalue = [0, 1]"] ;
218 -> 219 ;
220 [label="gini = 0.0\nsamples = 20\nvalue = [20, 0]"] ;
218 -> 220 ;
221 [label="Profit2 <= -12.045\ngini = 0.5\nsamples = 6\nvalue = [3, 3]"] ;
217 -> 221 ;
222 [label="gini = 0.0\nsamples = 2\nvalue = [2, 0]"] ;
221 -> 222 ;
223 [label="Region_x <= 9.0\ngini = 0.375\nsamples = 4\nvalue = [1, 3]"] ;
221 -> 223 ;
224 [label="gini = 0.0\nsamples = 1\nvalue = [1, 0]"] ;
223 -> 224 ;
225 [label="gini = 0.0\nsamples = 3\nvalue = [0, 3]"] ;
223 -> 225 ;
226 [label="Discount <= 0.46\ngini = 0.444\nsamples = 3\nvalue = [1, 2]"] ;
156 -> 226 ;
227 [label="gini = 0.0\nsamples = 2\nvalue = [0, 2]"] ;
226 -> 227 ;
228 [label="gini = 0.0\nsamples = 1\nvalue = [1, 0]"] ;
226 -> 228 ;
229 [label="Profit2 <= -108.13\ngini = 0.034\nsamples = 58\nvalue = [57, 1]"] ;
155 -> 229 ;
230 [label="Quantity <= 3.0\ngini = 0.278\nsamples = 6\nvalue = [5, 1]"] ;
229 -> 230 ;
231 [label="gini = 0.0\nsamples = 1\nvalue = [0, 1]"] ;
230 -> 231 ;
232 [label="gini = 0.0\nsamples = 5\nvalue = [5, 0]"] ;
230 -> 232 ;
233 [label="gini = 0.0\nsamples = 52\nvalue = [52, 0]"] ;
229 -> 233 ;
234 [label="Shipping.Cost <= 9.995\ngini = 0.48\nsamples = 5\nvalue = [3, 2]"] ;
154 -> 234 ;
235 [label="gini = 0.0\nsamples = 2\nvalue = [0, 2]"] ;
234 -> 235 ;
236 [label="gini = 0.0\nsamples = 3\nvalue = [3, 0]"] ;
234 -> 236 ;
237 [label="Profit2 <= 26.91\ngini = 0.342\nsamples = 32\nvalue = [25, 7]"] ;
139 -> 237 ;
238 [label="Product.ID <= 2064.0\ngini = 0.496\nsamples = 11\nvalue = [5, 6]"] ;
237 -> 238 ;
239 [label="Shipping.Cost <= 22.66\ngini = 0.408\nsamples = 7\nvalue = [5, 2]"] ;
238 -> 239 ;
240 [label="gini = 0.0\nsamples = 5\nvalue = [5, 0]"] ;
239 -> 240 ;
241 [label="gini = 0.0\nsamples = 2\nvalue = [0, 2]"] ;
239 -> 241 ;
242 [label="gini = 0.0\nsamples = 4\nvalue = [0, 4]"] ;
238 -> 242 ;
243 [label="Sub.Category <= 2.0\ngini = 0.091\nsamples = 21\nvalue = [20, 1]"] ;
237 -> 243 ;
244 [label="Profit2 <= 33.575\ngini = 0.5\nsamples = 2\nvalue = [1, 1]"] ;
243 -> 244 ;
245 [label="gini = 0.0\nsamples = 1\nvalue = [1, 0]"] ;
244 -> 245 ;
246 [label="gini = 0.0\nsamples = 1\nvalue = [0, 1]"] ;
244 -> 246 ;
247 [label="gini = 0.0\nsamples = 19\nvalue = [19, 0]"] ;
243 -> 247 ;
248 [label="Product.ID <= 2586.0\ngini = 0.49\nsamples = 7\nvalue = [3, 4]"] ;
138 -> 248 ;
249 [label="gini = 0.0\nsamples = 3\nvalue = [3, 0]"] ;
248 -> 249 ;
250 [label="gini = 0.0\nsamples = 4\nvalue = [0, 4]"] ;
248 -> 250 ;
251 [label="Discount <= 0.55\ngini = 0.067\nsamples = 261\nvalue = [252, 9]"] ;
137 -> 251 ;
252 [label="Quantity <= 12.5\ngini = 0.048\nsamples = 243\nvalue = [237, 6]"] ;
251 -> 252 ;
253 [label="Profit2 <= 38.13\ngini = 0.041\nsamples = 240\nvalue = [235, 5]"] ;
252 -> 253 ;
254 [label="Profit2 <= 1.015\ngini = 0.033\nsamples = 236\nvalue = [232, 4]"] ;
253 -> 254 ;
255 [label="gini = 0.0\nsamples = 149\nvalue = [149, 0]"] ;
254 -> 255 ;
256 [label="Profit2 <= 2.09\ngini = 0.088\nsamples = 87\nvalue = [83, 4]"] ;
254 -> 256 ;
257 [label="ProcessTime <= 4.5\ngini = 0.444\nsamples = 3\nvalue = [1, 2]"] ;
256 -> 257 ;
258 [label="gini = 0.0\nsamples = 1\nvalue = [1, 0]"] ;
257 -> 258 ;
259 [label="gini = 0.0\nsamples = 2\nvalue = [0, 2]"] ;
257 -> 259 ;
260 [label="Sales2 <= 24.685\ngini = 0.046\nsamples = 84\nvalue = [82, 2]"] ;
256 -> 260 ;
261 [label="Sales2 <= 22.75\ngini = 0.32\nsamples = 10\nvalue = [8, 2]"] ;
260 -> 261 ;
262 [label="Profit2 <= 8.64\ngini = 0.198\nsamples = 9\nvalue = [8, 1]"] ;
261 -> 262 ;
263 [label="gini = 0.0\nsamples = 8\nvalue = [8, 0]"] ;
262 -> 263 ;
264 [label="gini = 0.0\nsamples = 1\nvalue = [0, 1]"] ;
262 -> 264 ;
265 [label="gini = 0.0\nsamples = 1\nvalue = [0, 1]"] ;
261 -> 265 ;
266 [label="gini = 0.0\nsamples = 74\nvalue = [74, 0]"] ;
260 -> 266 ;
267 [label="Shipping.Cost <= 9.455\ngini = 0.375\nsamples = 4\nvalue = [3, 1]"] ;
253 -> 267 ;
268 [label="gini = 0.0\nsamples = 1\nvalue = [0, 1]"] ;
267 -> 268 ;
269 [label="gini = 0.0\nsamples = 3\nvalue = [3, 0]"] ;
267 -> 269 ;
270 [label="Shipping.Cost <= 23.045\ngini = 0.444\nsamples = 3\nvalue = [2, 1]"] ;
252 -> 270 ;
271 [label="gini = 0.0\nsamples = 1\nvalue = [0, 1]"] ;
270 -> 271 ;
272 [label="gini = 0.0\nsamples = 2\nvalue = [2, 0]"] ;
270 -> 272 ;
273 [label="Discount <= 0.65\ngini = 0.278\nsamples = 18\nvalue = [15, 3]"] ;
251 -> 273 ;
274 [label="gini = 0.0\nsamples = 3\nvalue = [0, 3]"] ;
273 -> 274 ;
275 [label="gini = 0.0\nsamples = 15\nvalue = [15, 0]"] ;
273 -> 275 ;
276 [label="Discount <= 0.485\ngini = 0.272\nsamples = 74\nvalue = [62, 12]"] ;
136 -> 276 ;
277 [label="Sales2 <= 311.945\ngini = 0.239\nsamples = 72\nvalue = [62, 10]"] ;
276 -> 277 ;
278 [label="Discount <= 0.21\ngini = 0.205\nsamples = 69\nvalue = [61, 8]"] ;
277 -> 278 ;
279 [label="Quantity <= 6.5\ngini = 0.312\nsamples = 31\nvalue = [25, 6]"] ;
278 -> 279 ;
280 [label="Profit2 <= -2.715\ngini = 0.238\nsamples = 29\nvalue = [25, 4]"] ;
279 -> 280 ;
281 [label="Profit2 <= -3.86\ngini = 0.48\nsamples = 5\nvalue = [3, 2]"] ;
280 -> 281 ;
282 [label="gini = 0.0\nsamples = 3\nvalue = [3, 0]"] ;
281 -> 282 ;
283 [label="gini = 0.0\nsamples = 2\nvalue = [0, 2]"] ;
281 -> 283 ;
284 [label="ProcessTime <= 6.5\ngini = 0.153\nsamples = 24\nvalue = [22, 2]"] ;
280 -> 284 ;
285 [label="gini = 0.0\nsamples = 12\nvalue = [12, 0]"] ;
284 -> 285 ;
286 [label="Quantity <= 2.5\ngini = 0.278\nsamples = 12\nvalue = [10, 2]"] ;
284 -> 286 ;
287 [label="gini = 0.0\nsamples = 6\nvalue = [6, 0]"] ;
286 -> 287 ;
288 [label="Sales2 <= 51.235\ngini = 0.444\nsamples = 6\nvalue = [4, 2]"] ;
286 -> 288 ;
289 [label="gini = 0.0\nsamples = 2\nvalue = [0, 2]"] ;
288 -> 289 ;
290 [label="gini = 0.0\nsamples = 4\nvalue = [4, 0]"] ;
288 -> 290 ;
291 [label="gini = 0.0\nsamples = 2\nvalue = [0, 2]"] ;
279 -> 291 ;
292 [label="Sub.Category <= 1.0\ngini = 0.1\nsamples = 38\nvalue = [36, 2]"] ;
278 -> 292 ;
293 [label="Sales2 <= 66.1\ngini = 0.444\nsamples = 6\nvalue = [4, 2]"] ;
292 -> 293 ;
294 [label="Profit2 <= -19.44\ngini = 0.444\nsamples = 3\nvalue = [1, 2]"] ;
293 -> 294 ;
295 [label="gini = 0.0\nsamples = 2\nvalue = [0, 2]"] ;
294 -> 295 ;
296 [label="gini = 0.0\nsamples = 1\nvalue = [1, 0]"] ;
294 -> 296 ;
297 [label="gini = 0.0\nsamples = 3\nvalue = [3, 0]"] ;
293 -> 297 ;
298 [label="gini = 0.0\nsamples = 32\nvalue = [32, 0]"] ;
292 -> 298 ;
299 [label="Region_x <= 13.0\ngini = 0.444\nsamples = 3\nvalue = [1, 2]"] ;
277 -> 299 ;
300 [label="gini = 0.0\nsamples = 2\nvalue = [0, 2]"] ;
299 -> 300 ;
301 [label="gini = 0.0\nsamples = 1\nvalue = [1, 0]"] ;
299 -> 301 ;
302 [label="gini = 0.0\nsamples = 2\nvalue = [0, 2]"] ;
276 -> 302 ;
303 [label="Sales2 <= 207.14\ngini = 0.092\nsamples = 1994\nvalue = [1898, 96]"] ;
33 -> 303 ;
304 [label="Sales2 <= 206.755\ngini = 0.099\nsamples = 1794\nvalue = [1700, 94]"] ;
303 -> 304 ;
305 [label="Shipping.Cost <= 25.73\ngini = 0.097\nsamples = 1792\nvalue = [1700, 92]"] ;
304 -> 305 ;
306 [label="Shipping.Cost <= 1.725\ngini = 0.095\nsamples = 1782\nvalue = [1693, 89]"] ;
305 -> 306 ;
307 [label="Profit2 <= 8.8\ngini = 0.054\nsamples = 396\nvalue = [385, 11]"] ;
306 -> 307 ;
308 [label="Profit2 <= -31.235\ngini = 0.034\nsamples = 351\nvalue = [345, 6]"] ;
307 -> 308 ;
309 [label="Product.ID <= 1465.0\ngini = 0.198\nsamples = 9\nvalue = [8, 1]"] ;
308 -> 309 ;
310 [label="gini = 0.0\nsamples = 1\nvalue = [0, 1]"] ;
309 -> 310 ;
311 [label="gini = 0.0\nsamples = 8\nvalue = [8, 0]"] ;
309 -> 311 ;
312 [label="Shipping.Cost <= 1.075\ngini = 0.029\nsamples = 342\nvalue = [337, 5]"] ;
308 -> 312 ;
313 [label="Profit2 <= 4.965\ngini = 0.198\nsamples = 9\nvalue = [8, 1]"] ;
312 -> 313 ;
314 [label="gini = 0.0\nsamples = 8\nvalue = [8, 0]"] ;
313 -> 314 ;
315 [label="gini = 0.0\nsamples = 1\nvalue = [0, 1]"] ;
313 -> 315 ;
316 [label="Profit2 <= 1.53\ngini = 0.024\nsamples = 333\nvalue = [329, 4]"] ;
312 -> 316 ;
317 [label="Region_x <= 3.0\ngini = 0.045\nsamples = 174\nvalue = [170, 4]"] ;
316 -> 317 ;
318 [label="Sales2 <= 10.5\ngini = 0.444\nsamples = 3\nvalue = [2, 1]"] ;
317 -> 318 ;
319 [label="gini = 0.0\nsamples = 1\nvalue = [0, 1]"] ;
318 -> 319 ;
320 [label="gini = 0.0\nsamples = 2\nvalue = [2, 0]"] ;
318 -> 320 ;
321 [label="Profit2 <= 1.47\ngini = 0.034\nsamples = 171\nvalue = [168, 3]"] ;
317 -> 321 ;
322 [label="Product.ID <= 1143.5\ngini = 0.024\nsamples = 168\nvalue = [166, 2]"] ;
321 -> 322 ;
323 [label="Product.ID <= 1130.5\ngini = 0.219\nsamples = 8\nvalue = [7, 1]"] ;
322 -> 323 ;
324 [label="gini = 0.0\nsamples = 7\nvalue = [7, 0]"] ;
323 -> 324 ;
325 [label="gini = 0.0\nsamples = 1\nvalue = [0, 1]"] ;
323 -> 325 ;
326 [label="Profit2 <= 1.235\ngini = 0.012\nsamples = 160\nvalue = [159, 1]"] ;
322 -> 326 ;
327 [label="gini = 0.0\nsamples = 151\nvalue = [151, 0]"] ;
326 -> 327 ;
328 [label="Profit2 <= 1.255\ngini = 0.198\nsamples = 9\nvalue = [8, 1]"] ;
326 -> 328 ;
329 [label="gini = 0.0\nsamples = 1\nvalue = [0, 1]"] ;
328 -> 329 ;
330 [label="gini = 0.0\nsamples = 8\nvalue = [8, 0]"] ;
328 -> 330 ;
331 [label="Product.ID <= 2391.5\ngini = 0.444\nsamples = 3\nvalue = [2, 1]"] ;
321 -> 331 ;
332 [label="gini = 0.0\nsamples = 2\nvalue = [2, 0]"] ;
331 -> 332 ;
333 [label="gini = 0.0\nsamples = 1\nvalue = [0, 1]"] ;
331 -> 333 ;
334 [label="gini = 0.0\nsamples = 159\nvalue = [159, 0]"] ;
316 -> 334 ;
335 [label="Sales2 <= 22.455\ngini = 0.198\nsamples = 45\nvalue = [40, 5]"] ;
307 -> 335 ;
336 [label="Sales2 <= 20.7\ngini = 0.5\nsamples = 6\nvalue = [3, 3]"] ;
335 -> 336 ;
337 [label="gini = 0.0\nsamples = 3\nvalue = [3, 0]"] ;
336 -> 337 ;
338 [label="gini = 0.0\nsamples = 3\nvalue = [0, 3]"] ;
336 -> 338 ;
339 [label="Shipping.Cost <= 1.06\ngini = 0.097\nsamples = 39\nvalue = [37, 2]"] ;
335 -> 339 ;
340 [label="gini = 0.0\nsamples = 1\nvalue = [0, 1]"] ;
339 -> 340 ;
341 [label="Sub.Category <= 14.5\ngini = 0.051\nsamples = 38\nvalue = [37, 1]"] ;
339 -> 341 ;
342 [label="gini = 0.0\nsamples = 36\nvalue = [36, 0]"] ;
341 -> 342 ;
343 [label="Product.ID <= 2851.5\ngini = 0.5\nsamples = 2\nvalue = [1, 1]"] ;
341 -> 343 ;
344 [label="gini = 0.0\nsamples = 1\nvalue = [1, 0]"] ;
343 -> 344 ;
345 [label="gini = 0.0\nsamples = 1\nvalue = [0, 1]"] ;
343 -> 345 ;
346 [label="Shipping.Cost <= 1.875\ngini = 0.106\nsamples = 1386\nvalue = [1308, 78]"] ;
306 -> 346 ;
347 [label="ProcessTime <= 5.5\ngini = 0.202\nsamples = 105\nvalue = [93, 12]"] ;
346 -> 347 ;
348 [label="Sales2 <= 7.305\ngini = 0.143\nsamples = 90\nvalue = [83, 7]"] ;
347 -> 348 ;
349 [label="gini = 0.0\nsamples = 1\nvalue = [0, 1]"] ;
348 -> 349 ;
350 [label="Product.ID <= 460.5\ngini = 0.126\nsamples = 89\nvalue = [83, 6]"] ;
348 -> 350 ;
351 [label="Profit2 <= 7.095\ngini = 0.5\nsamples = 2\nvalue = [1, 1]"] ;
350 -> 351 ;
352 [label="gini = 0.0\nsamples = 1\nvalue = [0, 1]"] ;
351 -> 352 ;
353 [label="gini = 0.0\nsamples = 1\nvalue = [1, 0]"] ;
351 -> 353 ;
354 [label="Region_x <= 3.0\ngini = 0.108\nsamples = 87\nvalue = [82, 5]"] ;
350 -> 354 ;
355 [label="Profit2 <= 2.58\ngini = 0.408\nsamples = 7\nvalue = [5, 2]"] ;
354 -> 355 ;
356 [label="gini = 0.0\nsamples = 2\nvalue = [0, 2]"] ;
355 -> 356 ;
357 [label="gini = 0.0\nsamples = 5\nvalue = [5, 0]"] ;
355 -> 357 ;
358 [label="Shipping.Cost <= 1.835\ngini = 0.072\nsamples = 80\nvalue = [77, 3]"] ;
354 -> 358 ;
359 [label="gini = 0.0\nsamples = 53\nvalue = [53, 0]"] ;
358 -> 359 ;
360 [label="Product.ID <= 2841.0\ngini = 0.198\nsamples = 27\nvalue = [24, 3]"] ;
358 -> 360 ;
361 [label="Sub.Category <= 5.0\ngini = 0.142\nsamples = 26\nvalue = [24, 2]"] ;
360 -> 361 ;
362 [label="Product.ID <= 1610.0\ngini = 0.26\nsamples = 13\nvalue = [11, 2]"] ;
361 -> 362 ;
363 [label="Discount <= 0.135\ngini = 0.153\nsamples = 12\nvalue = [11, 1]"] ;
362 -> 363 ;
364 [label="gini = 0.0\nsamples = 9\nvalue = [9, 0]"] ;
363 -> 364 ;
365 [label="Product.ID <= 1248.5\ngini = 0.444\nsamples = 3\nvalue = [2, 1]"] ;
363 -> 365 ;
366 [label="gini = 0.0\nsamples = 2\nvalue = [2, 0]"] ;
365 -> 366 ;
367 [label="gini = 0.0\nsamples = 1\nvalue = [0, 1]"] ;
365 -> 367 ;
368 [label="gini = 0.0\nsamples = 1\nvalue = [0, 1]"] ;
362 -> 368 ;
369 [label="gini = 0.0\nsamples = 13\nvalue = [13, 0]"] ;
361 -> 369 ;
370 [label="gini = 0.0\nsamples = 1\nvalue = [0, 1]"] ;
360 -> 370 ;
371 [label="ProcessTime <= 6.5\ngini = 0.444\nsamples = 15\nvalue = [10, 5]"] ;
347 -> 371 ;
372 [label="Sales2 <= 20.795\ngini = 0.496\nsamples = 11\nvalue = [6, 5]"] ;
371 -> 372 ;
373 [label="gini = 0.0\nsamples = 3\nvalue = [3, 0]"] ;
372 -> 373 ;
374 [label="Market <= 0.5\ngini = 0.469\nsamples = 8\nvalue = [3, 5]"] ;
372 -> 374 ;
375 [label="gini = 0.0\nsamples = 2\nvalue = [2, 0]"] ;
374 -> 375 ;
376 [label="Sales2 <= 65.545\ngini = 0.278\nsamples = 6\nvalue = [1, 5]"] ;
374 -> 376 ;
377 [label="gini = 0.0\nsamples = 5\nvalue = [0, 5]"] ;
376 -> 377 ;
378 [label="gini = 0.0\nsamples = 1\nvalue = [1, 0]"] ;
376 -> 378 ;
379 [label="gini = 0.0\nsamples = 4\nvalue = [4, 0]"] ;
371 -> 379 ;
380 [label="Shipping.Cost <= 2.845\ngini = 0.098\nsamples = 1281\nvalue = [1215, 66]"] ;
346 -> 380 ;
381 [label="Quantity <= 8.5\ngini = 0.05\nsamples = 312\nvalue = [304, 8]"] ;
380 -> 381 ;
382 [label="Shipping.Cost <= 1.995\ngini = 0.044\nsamples = 311\nvalue = [304, 7]"] ;
381 -> 382 ;
383 [label="Profit2 <= 1.905\ngini = 0.106\nsamples = 89\nvalue = [84, 5]"] ;
382 -> 383 ;
384 [label="gini = 0.0\nsamples = 42\nvalue = [42, 0]"] ;
383 -> 384 ;
385 [label="Profit2 <= 2.05\ngini = 0.19\nsamples = 47\nvalue = [42, 5]"] ;
383 -> 385 ;
386 [label="gini = 0.0\nsamples = 1\nvalue = [0, 1]"] ;
385 -> 386 ;
387 [label="Product.ID <= 2727.0\ngini = 0.159\nsamples = 46\nvalue = [42, 4]"] ;
385 -> 387 ;
388 [label="ProcessTime <= 6.5\ngini = 0.095\nsamples = 40\nvalue = [38, 2]"] ;
387 -> 388 ;
389 [label="Profit2 <= 3.075\ngini = 0.053\nsamples = 37\nvalue = [36, 1]"] ;
388 -> 389 ;
390 [label="Sales2 <= 10.98\ngini = 0.444\nsamples = 3\nvalue = [2, 1]"] ;
389 -> 390 ;
391 [label="gini = 0.0\nsamples = 1\nvalue = [0, 1]"] ;
390 -> 391 ;
392 [label="gini = 0.0\nsamples = 2\nvalue = [2, 0]"] ;
390 -> 392 ;
393 [label="gini = 0.0\nsamples = 34\nvalue = [34, 0]"] ;
389 -> 393 ;
394 [label="Quantity <= 2.0\ngini = 0.444\nsamples = 3\nvalue = [2, 1]"] ;
388 -> 394 ;
395 [label="gini = 0.0\nsamples = 2\nvalue = [2, 0]"] ;
394 -> 395 ;
396 [label="gini = 0.0\nsamples = 1\nvalue = [0, 1]"] ;
394 -> 396 ;
397 [label="Profit2 <= 7.755\ngini = 0.444\nsamples = 6\nvalue = [4, 2]"] ;
387 -> 397 ;
398 [label="gini = 0.0\nsamples = 3\nvalue = [3, 0]"] ;
397 -> 398 ;
399 [label="Product.ID <= 2915.5\ngini = 0.444\nsamples = 3\nvalue = [1, 2]"] ;
397 -> 399 ;
400 [label="gini = 0.0\nsamples = 2\nvalue = [0, 2]"] ;
399 -> 400 ;
401 [label="gini = 0.0\nsamples = 1\nvalue = [1, 0]"] ;
399 -> 401 ;
402 [label="Quantity <= 5.5\ngini = 0.018\nsamples = 222\nvalue = [220, 2]"] ;
382 -> 402 ;
403 [label="gini = 0.0\nsamples = 204\nvalue = [204, 0]"] ;
402 -> 403 ;
404 [label="Product.ID <= 1703.5\ngini = 0.198\nsamples = 18\nvalue = [16, 2]"] ;
402 -> 404 ;
405 [label="Shipping.Cost <= 2.715\ngini = 0.444\nsamples = 3\nvalue = [1, 2]"] ;
404 -> 405 ;
406 [label="gini = 0.0\nsamples = 2\nvalue = [0, 2]"] ;
405 -> 406 ;
407 [label="gini = 0.0\nsamples = 1\nvalue = [1, 0]"] ;
405 -> 407 ;
408 [label="gini = 0.0\nsamples = 15\nvalue = [15, 0]"] ;
404 -> 408 ;
409 [label="gini = 0.0\nsamples = 1\nvalue = [0, 1]"] ;
381 -> 409 ;
410 [label="ProcessTime <= 4.5\ngini = 0.113\nsamples = 969\nvalue = [911, 58]"] ;
380 -> 410 ;
411 [label="Profit2 <= 8.025\ngini = 0.148\nsamples = 436\nvalue = [401, 35]"] ;
410 -> 411 ;
412 [label="Profit2 <= 7.945\ngini = 0.206\nsamples = 214\nvalue = [189, 25]"] ;
411 -> 412 ;
413 [label="Quantity <= 5.5\ngini = 0.2\nsamples = 213\nvalue = [189, 24]"] ;
412 -> 413 ;
414 [label="Profit2 <= -65.205\ngini = 0.168\nsamples = 184\nvalue = [167, 17]"] ;
413 -> 414 ;
415 [label="Shipping.Cost <= 8.16\ngini = 0.444\nsamples = 12\nvalue = [8, 4]"] ;
414 -> 415 ;
416 [label="Profit2 <= -113.755\ngini = 0.375\nsamples = 4\nvalue = [1, 3]"] ;
415 -> 416 ;
417 [label="gini = 0.0\nsamples = 1\nvalue = [1, 0]"] ;
416 -> 417 ;
418 [label="gini = 0.0\nsamples = 3\nvalue = [0, 3]"] ;
416 -> 418 ;
419 [label="Profit2 <= -114.615\ngini = 0.219\nsamples = 8\nvalue = [7, 1]"] ;
415 -> 419 ;
420 [label="Product.ID <= 183.5\ngini = 0.5\nsamples = 2\nvalue = [1, 1]"] ;
419 -> 420 ;
421 [label="gini = 0.0\nsamples = 1\nvalue = [1, 0]"] ;
420 -> 421 ;
422 [label="gini = 0.0\nsamples = 1\nvalue = [0, 1]"] ;
420 -> 422 ;
423 [label="gini = 0.0\nsamples = 6\nvalue = [6, 0]"] ;
419 -> 423 ;
424 [label="Profit2 <= 1.18\ngini = 0.14\nsamples = 172\nvalue = [159, 13]"] ;
414 -> 424 ;
425 [label="Sales2 <= 58.505\ngini = 0.071\nsamples = 108\nvalue = [104, 4]"] ;
424 -> 425 ;
426 [label="Sales2 <= 57.16\ngini = 0.162\nsamples = 45\nvalue = [41, 4]"] ;
425 -> 426 ;
427 [label="Discount <= 0.485\ngini = 0.091\nsamples = 42\nvalue = [40, 2]"] ;
426 -> 427 ;
428 [label="Shipping.Cost <= 3.0\ngini = 0.048\nsamples = 41\nvalue = [40, 1]"] ;
427 -> 428 ;
429 [label="Sub.Category <= 13.0\ngini = 0.245\nsamples = 7\nvalue = [6, 1]"] ;
428 -> 429 ;
430 [label="gini = 0.0\nsamples = 6\nvalue = [6, 0]"] ;
429 -> 430 ;
431 [label="gini = 0.0\nsamples = 1\nvalue = [0, 1]"] ;
429 -> 431 ;
432 [label="gini = 0.0\nsamples = 34\nvalue = [34, 0]"] ;
428 -> 432 ;
433 [label="gini = 0.0\nsamples = 1\nvalue = [0, 1]"] ;
427 -> 433 ;
434 [label="Quantity <= 3.5\ngini = 0.444\nsamples = 3\nvalue = [1, 2]"] ;
426 -> 434 ;
435 [label="gini = 0.0\nsamples = 2\nvalue = [0, 2]"] ;
434 -> 435 ;
436 [label="gini = 0.0\nsamples = 1\nvalue = [1, 0]"] ;
434 -> 436 ;
437 [label="gini = 0.0\nsamples = 63\nvalue = [63, 0]"] ;
425 -> 437 ;
438 [label="Sales2 <= 129.445\ngini = 0.242\nsamples = 64\nvalue = [55, 9]"] ;
424 -> 438 ;
439 [label="Shipping.Cost <= 5.31\ngini = 0.158\nsamples = 58\nvalue = [53, 5]"] ;
438 -> 439 ;
440 [label="Profit2 <= 6.92\ngini = 0.285\nsamples = 29\nvalue = [24, 5]"] ;
439 -> 440 ;
441 [label="Profit2 <= 2.61\ngini = 0.204\nsamples = 26\nvalue = [23, 3]"] ;
440 -> 441 ;
442 [label="ProcessTime <= 3.5\ngini = 0.48\nsamples = 5\nvalue = [3, 2]"] ;
441 -> 442 ;
443 [label="gini = 0.0\nsamples = 2\nvalue = [0, 2]"] ;
442 -> 443 ;
444 [label="gini = 0.0\nsamples = 3\nvalue = [3, 0]"] ;
442 -> 444 ;
445 [label="Sales2 <= 60.92\ngini = 0.091\nsamples = 21\nvalue = [20, 1]"] ;
441 -> 445 ;
446 [label="gini = 0.0\nsamples = 18\nvalue = [18, 0]"] ;
445 -> 446 ;
447 [label="Product.ID <= 2676.5\ngini = 0.444\nsamples = 3\nvalue = [2, 1]"] ;
445 -> 447 ;
448 [label="gini = 0.0\nsamples = 1\nvalue = [0, 1]"] ;
447 -> 448 ;
449 [label="gini = 0.0\nsamples = 2\nvalue = [2, 0]"] ;
447 -> 449 ;
450 [label="Sales2 <= 54.3\ngini = 0.444\nsamples = 3\nvalue = [1, 2]"] ;
440 -> 450 ;
451 [label="gini = 0.0\nsamples = 1\nvalue = [1, 0]"] ;
450 -> 451 ;
452 [label="gini = 0.0\nsamples = 2\nvalue = [0, 2]"] ;
450 -> 452 ;
453 [label="gini = 0.0\nsamples = 29\nvalue = [29, 0]"] ;
439 -> 453 ;
454 [label="Product.ID <= 2012.5\ngini = 0.444\nsamples = 6\nvalue = [2, 4]"] ;
438 -> 454 ;
455 [label="gini = 0.0\nsamples = 3\nvalue = [0, 3]"] ;
454 -> 455 ;
456 [label="Product.ID <= 3262.0\ngini = 0.444\nsamples = 3\nvalue = [2, 1]"] ;
454 -> 456 ;
457 [label="gini = 0.0\nsamples = 1\nvalue = [1, 0]"] ;
456 -> 457 ;
458 [label="Shipping.Cost <= 20.465\ngini = 0.5\nsamples = 2\nvalue = [1, 1]"] ;
456 -> 458 ;
459 [label="gini = 0.0\nsamples = 1\nvalue = [0, 1]"] ;
458 -> 459 ;
460 [label="gini = 0.0\nsamples = 1\nvalue = [1, 0]"] ;
458 -> 460 ;
461 [label="Quantity <= 6.5\ngini = 0.366\nsamples = 29\nvalue = [22, 7]"] ;
413 -> 461 ;
462 [label="Product.ID <= 1267.0\ngini = 0.48\nsamples = 10\nvalue = [4, 6]"] ;
461 -> 462 ;
463 [label="Profit2 <= 0.69\ngini = 0.32\nsamples = 5\nvalue = [4, 1]"] ;
462 -> 463 ;
464 [label="gini = 0.0\nsamples = 4\nvalue = [4, 0]"] ;
463 -> 464 ;
465 [label="gini = 0.0\nsamples = 1\nvalue = [0, 1]"] ;
463 -> 465 ;
466 [label="gini = 0.0\nsamples = 5\nvalue = [0, 5]"] ;
462 -> 466 ;
467 [label="Product.ID <= 627.5\ngini = 0.1\nsamples = 19\nvalue = [18, 1]"] ;
461 -> 467 ;
468 [label="Region_x <= 13.0\ngini = 0.5\nsamples = 2\nvalue = [1, 1]"] ;
467 -> 468 ;
469 [label="gini = 0.0\nsamples = 1\nvalue = [0, 1]"] ;
468 -> 469 ;
470 [label="gini = 0.0\nsamples = 1\nvalue = [1, 0]"] ;
468 -> 470 ;
471 [label="gini = 0.0\nsamples = 17\nvalue = [17, 0]"] ;
467 -> 471 ;
472 [label="gini = 0.0\nsamples = 1\nvalue = [0, 1]"] ;
412 -> 472 ;
473 [label="Sales2 <= 71.505\ngini = 0.086\nsamples = 222\nvalue = [212, 10]"] ;
411 -> 473 ;
474 [label="Sales2 <= 68.64\ngini = 0.189\nsamples = 85\nvalue = [76, 9]"] ;
473 -> 474 ;
475 [label="Sales2 <= 47.41\ngini = 0.136\nsamples = 82\nvalue = [76, 6]"] ;
474 -> 475 ;
476 [label="Shipping.Cost <= 7.95\ngini = 0.257\nsamples = 33\nvalue = [28, 5]"] ;
475 -> 476 ;
477 [label="Profit2 <= 15.09\ngini = 0.175\nsamples = 31\nvalue = [28, 3]"] ;
476 -> 477 ;
478 [label="gini = 0.0\nsamples = 25\nvalue = [25, 0]"] ;
477 -> 478 ;
479 [label="Shipping.Cost <= 3.335\ngini = 0.5\nsamples = 6\nvalue = [3, 3]"] ;
477 -> 479 ;
480 [label="gini = 0.0\nsamples = 3\nvalue = [0, 3]"] ;
479 -> 480 ;
481 [label="gini = 0.0\nsamples = 3\nvalue = [3, 0]"] ;
479 -> 481 ;
482 [label="gini = 0.0\nsamples = 2\nvalue = [0, 2]"] ;
476 -> 482 ;
483 [label="Region_x <= 14.5\ngini = 0.04\nsamples = 49\nvalue = [48, 1]"] ;
475 -> 483 ;
484 [label="gini = 0.0\nsamples = 47\nvalue = [47, 0]"] ;
483 -> 484 ;
485 [label="Profit2 <= 18.915\ngini = 0.5\nsamples = 2\nvalue = [1, 1]"] ;
483 -> 485 ;
486 [label="gini = 0.0\nsamples = 1\nvalue = [1, 0]"] ;
485 -> 486 ;
487 [label="gini = 0.0\nsamples = 1\nvalue = [0, 1]"] ;
485 -> 487 ;
488 [label="gini = 0.0\nsamples = 3\nvalue = [0, 3]"] ;
474 -> 488 ;
489 [label="Shipping.Cost <= 4.49\ngini = 0.014\nsamples = 137\nvalue = [136, 1]"] ;
473 -> 489 ;
490 [label="Shipping.Cost <= 4.385\ngini = 0.124\nsamples = 15\nvalue = [14, 1]"] ;
489 -> 490 ;
491 [label="gini = 0.0\nsamples = 14\nvalue = [14, 0]"] ;
490 -> 491 ;
492 [label="gini = 0.0\nsamples = 1\nvalue = [0, 1]"] ;
490 -> 492 ;
493 [label="gini = 0.0\nsamples = 122\nvalue = [122, 0]"] ;
489 -> 493 ;
494 [label="Profit2 <= 42.21\ngini = 0.083\nsamples = 533\nvalue = [510, 23]"] ;
410 -> 494 ;
495 [label="Sub.Category <= 6.5\ngini = 0.079\nsamples = 532\nvalue = [510, 22]"] ;
494 -> 495 ;
496 [label="Shipping.Cost <= 4.305\ngini = 0.035\nsamples = 224\nvalue = [220, 4]"] ;
495 -> 496 ;
497 [label="Shipping.Cost <= 4.27\ngini = 0.094\nsamples = 61\nvalue = [58, 3]"] ;
496 -> 497 ;
498 [label="Profit2 <= -8.47\ngini = 0.064\nsamples = 60\nvalue = [58, 2]"] ;
497 -> 498 ;
499 [label="Shipping.Cost <= 3.755\ngini = 0.32\nsamples = 10\nvalue = [8, 2]"] ;
498 -> 499 ;
500 [label="gini = 0.0\nsamples = 8\nvalue = [8, 0]"] ;
499 -> 500 ;
501 [label="gini = 0.0\nsamples = 2\nvalue = [0, 2]"] ;
499 -> 501 ;
502 [label="gini = 0.0\nsamples = 50\nvalue = [50, 0]"] ;
498 -> 502 ;
503 [label="gini = 0.0\nsamples = 1\nvalue = [0, 1]"] ;
497 -> 503 ;
504 [label="Profit2 <= 30.07\ngini = 0.012\nsamples = 163\nvalue = [162, 1]"] ;
496 -> 504 ;
505 [label="gini = 0.0\nsamples = 140\nvalue = [140, 0]"] ;
504 -> 505 ;
506 [label="Profit2 <= 30.31\ngini = 0.083\nsamples = 23\nvalue = [22, 1]"] ;
504 -> 506 ;
507 [label="gini = 0.0\nsamples = 1\nvalue = [0, 1]"] ;
506 -> 507 ;
508 [label="gini = 0.0\nsamples = 22\nvalue = [22, 0]"] ;
506 -> 508 ;
509 [label="Sales2 <= 202.875\ngini = 0.11\nsamples = 308\nvalue = [290, 18]"] ;
495 -> 509 ;
510 [label="Product.ID <= 464.5\ngini = 0.105\nsamples = 307\nvalue = [290, 17]"] ;
509 -> 510 ;
511 [label="Region_x <= 8.5\ngini = 0.308\nsamples = 21\nvalue = [17, 4]"] ;
510 -> 511 ;
512 [label="Sales2 <= 129.3\ngini = 0.444\nsamples = 3\nvalue = [1, 2]"] ;
511 -> 512 ;
513 [label="gini = 0.0\nsamples = 1\nvalue = [1, 0]"] ;
512 -> 513 ;
514 [label="gini = 0.0\nsamples = 2\nvalue = [0, 2]"] ;
512 -> 514 ;
515 [label="Product.ID <= 462.5\ngini = 0.198\nsamples = 18\nvalue = [16, 2]"] ;
511 -> 515 ;
516 [label="Shipping.Cost <= 3.46\ngini = 0.117\nsamples = 16\nvalue = [15, 1]"] ;
515 -> 516 ;
517 [label="Region_x <= 13.0\ngini = 0.5\nsamples = 2\nvalue = [1, 1]"] ;
516 -> 517 ;
518 [label="gini = 0.0\nsamples = 1\nvalue = [1, 0]"] ;
517 -> 518 ;
519 [label="gini = 0.0\nsamples = 1\nvalue = [0, 1]"] ;
517 -> 519 ;
520 [label="gini = 0.0\nsamples = 14\nvalue = [14, 0]"] ;
516 -> 520 ;
521 [label="Shipping.Cost <= 7.46\ngini = 0.5\nsamples = 2\nvalue = [1, 1]"] ;
515 -> 521 ;
522 [label="gini = 0.0\nsamples = 1\nvalue = [0, 1]"] ;
521 -> 522 ;
523 [label="gini = 0.0\nsamples = 1\nvalue = [1, 0]"] ;
521 -> 523 ;
524 [label="Shipping.Cost <= 13.52\ngini = 0.087\nsamples = 286\nvalue = [273, 13]"] ;
510 -> 524 ;
525 [label="Shipping.Cost <= 2.92\ngini = 0.071\nsamples = 272\nvalue = [262, 10]"] ;
524 -> 525 ;
526 [label="Product.ID <= 2581.5\ngini = 0.408\nsamples = 7\nvalue = [5, 2]"] ;
525 -> 526 ;
527 [label="gini = 0.0\nsamples = 4\nvalue = [4, 0]"] ;
526 -> 527 ;
528 [label="Quantity <= 3.0\ngini = 0.444\nsamples = 3\nvalue = [1, 2]"] ;
526 -> 528 ;
529 [label="gini = 0.0\nsamples = 2\nvalue = [0, 2]"] ;
528 -> 529 ;
530 [label="gini = 0.0\nsamples = 1\nvalue = [1, 0]"] ;
528 -> 530 ;
531 [label="Discount <= 0.485\ngini = 0.059\nsamples = 265\nvalue = [257, 8]"] ;
525 -> 531 ;
532 [label="Shipping.Cost <= 5.8\ngini = 0.053\nsamples = 259\nvalue = [252, 7]"] ;
531 -> 532 ;
533 [label="Sub.Category <= 14.5\ngini = 0.014\nsamples = 145\nvalue = [144, 1]"] ;
532 -> 533 ;
534 [label="gini = 0.0\nsamples = 119\nvalue = [119, 0]"] ;
533 -> 534 ;
535 [label="Product.ID <= 2786.0\ngini = 0.074\nsamples = 26\nvalue = [25, 1]"] ;
533 -> 535 ;
536 [label="Quantity <= 2.5\ngini = 0.444\nsamples = 3\nvalue = [2, 1]"] ;
535 -> 536 ;
537 [label="gini = 0.0\nsamples = 2\nvalue = [2, 0]"] ;
536 -> 537 ;
538 [label="gini = 0.0\nsamples = 1\nvalue = [0, 1]"] ;
536 -> 538 ;
539 [label="gini = 0.0\nsamples = 23\nvalue = [23, 0]"] ;
535 -> 539 ;
540 [label="Shipping.Cost <= 5.895\ngini = 0.1\nsamples = 114\nvalue = [108, 6]"] ;
532 -> 540 ;
541 [label="Sales2 <= 115.355\ngini = 0.5\nsamples = 6\nvalue = [3, 3]"] ;
540 -> 541 ;
542 [label="gini = 0.0\nsamples = 3\nvalue = [0, 3]"] ;
541 -> 542 ;
543 [label="gini = 0.0\nsamples = 3\nvalue = [3, 0]"] ;
541 -> 543 ;
544 [label="Region_x <= 14.5\ngini = 0.054\nsamples = 108\nvalue = [105, 3]"] ;
540 -> 544 ;
545 [label="Shipping.Cost <= 6.345\ngini = 0.038\nsamples = 103\nvalue = [101, 2]"] ;
544 -> 545 ;
546 [label="Shipping.Cost <= 6.325\ngini = 0.198\nsamples = 9\nvalue = [8, 1]"] ;
545 -> 546 ;
547 [label="gini = 0.0\nsamples = 8\nvalue = [8, 0]"] ;
546 -> 547 ;
548 [label="gini = 0.0\nsamples = 1\nvalue = [0, 1]"] ;
546 -> 548 ;
549 [label="Shipping.Cost <= 10.71\ngini = 0.021\nsamples = 94\nvalue = [93, 1]"] ;
545 -> 549 ;
550 [label="gini = 0.0\nsamples = 74\nvalue = [74, 0]"] ;
549 -> 550 ;
551 [label="Sales2 <= 108.18\ngini = 0.095\nsamples = 20\nvalue = [19, 1]"] ;
549 -> 551 ;
552 [label="gini = 0.0\nsamples = 1\nvalue = [0, 1]"] ;
551 -> 552 ;
553 [label="gini = 0.0\nsamples = 19\nvalue = [19, 0]"] ;
551 -> 553 ;
554 [label="Product.ID <= 2657.0\ngini = 0.32\nsamples = 5\nvalue = [4, 1]"] ;
544 -> 554 ;
555 [label="gini = 0.0\nsamples = 3\nvalue = [3, 0]"] ;
554 -> 555 ;
556 [label="Sales2 <= 129.675\ngini = 0.5\nsamples = 2\nvalue = [1, 1]"] ;
554 -> 556 ;
557 [label="gini = 0.0\nsamples = 1\nvalue = [0, 1]"] ;
556 -> 557 ;
558 [label="gini = 0.0\nsamples = 1\nvalue = [1, 0]"] ;
556 -> 558 ;
559 [label="Quantity <= 3.5\ngini = 0.278\nsamples = 6\nvalue = [5, 1]"] ;
531 -> 559 ;
560 [label="gini = 0.0\nsamples = 4\nvalue = [4, 0]"] ;
559 -> 560 ;
561 [label="Profit2 <= -34.905\ngini = 0.5\nsamples = 2\nvalue = [1, 1]"] ;
559 -> 561 ;
562 [label="gini = 0.0\nsamples = 1\nvalue = [0, 1]"] ;
561 -> 562 ;
563 [label="gini = 0.0\nsamples = 1\nvalue = [1, 0]"] ;
561 -> 563 ;
564 [label="Sales2 <= 127.84\ngini = 0.337\nsamples = 14\nvalue = [11, 3]"] ;
524 -> 564 ;
565 [label="gini = 0.0\nsamples = 2\nvalue = [0, 2]"] ;
564 -> 565 ;
566 [label="Market <= 0.5\ngini = 0.153\nsamples = 12\nvalue = [11, 1]"] ;
564 -> 566 ;
567 [label="ProcessTime <= 5.5\ngini = 0.444\nsamples = 3\nvalue = [2, 1]"] ;
566 -> 567 ;
568 [label="gini = 0.0\nsamples = 1\nvalue = [0, 1]"] ;
567 -> 568 ;
569 [label="gini = 0.0\nsamples = 2\nvalue = [2, 0]"] ;
567 -> 569 ;
570 [label="gini = 0.0\nsamples = 9\nvalue = [9, 0]"] ;
566 -> 570 ;
571 [label="gini = 0.0\nsamples = 1\nvalue = [0, 1]"] ;
509 -> 571 ;
572 [label="gini = 0.0\nsamples = 1\nvalue = [0, 1]"] ;
494 -> 572 ;
573 [label="ProcessTime <= 2.5\ngini = 0.42\nsamples = 10\nvalue = [7, 3]"] ;
305 -> 573 ;
574 [label="ProcessTime <= 1.5\ngini = 0.5\nsamples = 6\nvalue = [3, 3]"] ;
573 -> 574 ;
575 [label="Category <= 1.5\ngini = 0.375\nsamples = 4\nvalue = [3, 1]"] ;
574 -> 575 ;
576 [label="gini = 0.0\nsamples = 3\nvalue = [3, 0]"] ;
575 -> 576 ;
577 [label="gini = 0.0\nsamples = 1\nvalue = [0, 1]"] ;
575 -> 577 ;
578 [label="gini = 0.0\nsamples = 2\nvalue = [0, 2]"] ;
574 -> 578 ;
579 [label="gini = 0.0\nsamples = 4\nvalue = [4, 0]"] ;
573 -> 579 ;
580 [label="gini = 0.0\nsamples = 2\nvalue = [0, 2]"] ;
304 -> 580 ;
581 [label="Region_x <= 3.0\ngini = 0.02\nsamples = 200\nvalue = [198, 2]"] ;
303 -> 581 ;
582 [label="Profit2 <= 20.04\ngini = 0.278\nsamples = 6\nvalue = [5, 1]"] ;
581 -> 582 ;
583 [label="gini = 0.0\nsamples = 4\nvalue = [4, 0]"] ;
582 -> 583 ;
584 [label="Category <= 1.0\ngini = 0.5\nsamples = 2\nvalue = [1, 1]"] ;
582 -> 584 ;
585 [label="gini = 0.0\nsamples = 1\nvalue = [1, 0]"] ;
584 -> 585 ;
586 [label="gini = 0.0\nsamples = 1\nvalue = [0, 1]"] ;
584 -> 586 ;
587 [label="Discount <= 0.46\ngini = 0.01\nsamples = 194\nvalue = [193, 1]"] ;
581 -> 587 ;
588 [label="gini = 0.0\nsamples = 175\nvalue = [175, 0]"] ;
587 -> 588 ;
589 [label="Shipping.Cost <= 10.5\ngini = 0.1\nsamples = 19\nvalue = [18, 1]"] ;
587 -> 589 ;
590 [label="Category <= 1.5\ngini = 0.444\nsamples = 3\nvalue = [2, 1]"] ;
589 -> 590 ;
591 [label="gini = 0.0\nsamples = 2\nvalue = [2, 0]"] ;
590 -> 591 ;
592 [label="gini = 0.0\nsamples = 1\nvalue = [0, 1]"] ;
590 -> 592 ;
593 [label="gini = 0.0\nsamples = 16\nvalue = [16, 0]"] ;
589 -> 593 ;
594 [label="Product.ID <= 3493.0\ngini = 0.077\nsamples = 2024\nvalue = [1943, 81]"] ;
32 -> 594 ;
595 [label="Profit2 <= -28.885\ngini = 0.073\nsamples = 1956\nvalue = [1882, 74]"] ;
594 -> 595 ;
596 [label="Shipping.Cost <= 24.105\ngini = 0.035\nsamples = 398\nvalue = [391, 7]"] ;
595 -> 596 ;
597 [label="Product.ID <= 79.5\ngini = 0.022\nsamples = 365\nvalue = [361, 4]"] ;
596 -> 597 ;
598 [label="Sales2 <= 59.255\ngini = 0.245\nsamples = 7\nvalue = [6, 1]"] ;
597 -> 598 ;
599 [label="gini = 0.0\nsamples = 1\nvalue = [0, 1]"] ;
598 -> 599 ;
600 [label="gini = 0.0\nsamples = 6\nvalue = [6, 0]"] ;
598 -> 600 ;
601 [label="Sales2 <= 63.275\ngini = 0.017\nsamples = 358\nvalue = [355, 3]"] ;
597 -> 601 ;
602 [label="Sales2 <= 63.025\ngini = 0.031\nsamples = 190\nvalue = [187, 3]"] ;
601 -> 602 ;
603 [label="Product.ID <= 281.5\ngini = 0.021\nsamples = 189\nvalue = [187, 2]"] ;
602 -> 603 ;
604 [label="Product.ID <= 267.5\ngini = 0.153\nsamples = 12\nvalue = [11, 1]"] ;
603 -> 604 ;
605 [label="gini = 0.0\nsamples = 11\nvalue = [11, 0]"] ;
604 -> 605 ;
606 [label="gini = 0.0\nsamples = 1\nvalue = [0, 1]"] ;
604 -> 606 ;
607 [label="Shipping.Cost <= 5.475\ngini = 0.011\nsamples = 177\nvalue = [176, 1]"] ;
603 -> 607 ;
608 [label="gini = 0.0\nsamples = 140\nvalue = [140, 0]"] ;
607 -> 608 ;
609 [label="Shipping.Cost <= 5.5\ngini = 0.053\nsamples = 37\nvalue = [36, 1]"] ;
607 -> 609 ;
610 [label="gini = 0.0\nsamples = 1\nvalue = [0, 1]"] ;
609 -> 610 ;
611 [label="gini = 0.0\nsamples = 36\nvalue = [36, 0]"] ;
609 -> 611 ;
612 [label="gini = 0.0\nsamples = 1\nvalue = [0, 1]"] ;
602 -> 612 ;
613 [label="gini = 0.0\nsamples = 168\nvalue = [168, 0]"] ;
601 -> 613 ;
614 [label="Shipping.Cost <= 24.58\ngini = 0.165\nsamples = 33\nvalue = [30, 3]"] ;
596 -> 614 ;
615 [label="Order.Priority <= 2.0\ngini = 0.5\nsamples = 4\nvalue = [2, 2]"] ;
614 -> 615 ;
616 [label="gini = 0.0\nsamples = 1\nvalue = [0, 1]"] ;
615 -> 616 ;
617 [label="Quantity <= 1.5\ngini = 0.444\nsamples = 3\nvalue = [2, 1]"] ;
615 -> 617 ;
618 [label="gini = 0.0\nsamples = 1\nvalue = [0, 1]"] ;
617 -> 618 ;
619 [label="gini = 0.0\nsamples = 2\nvalue = [2, 0]"] ;
617 -> 619 ;
620 [label="Profit2 <= -511.925\ngini = 0.067\nsamples = 29\nvalue = [28, 1]"] ;
614 -> 620 ;
621 [label="Sub.Category <= 3.0\ngini = 0.375\nsamples = 4\nvalue = [3, 1]"] ;
620 -> 621 ;
622 [label="gini = 0.0\nsamples = 1\nvalue = [0, 1]"] ;
621 -> 622 ;
623 [label="gini = 0.0\nsamples = 3\nvalue = [3, 0]"] ;
621 -> 623 ;
624 [label="gini = 0.0\nsamples = 25\nvalue = [25, 0]"] ;
620 -> 624 ;
625 [label="Quantity <= 11.5\ngini = 0.082\nsamples = 1558\nvalue = [1491, 67]"] ;
595 -> 625 ;
626 [label="Profit2 <= -28.745\ngini = 0.081\nsamples = 1557\nvalue = [1491, 66]"] ;
625 -> 626 ;
627 [label="gini = 0.0\nsamples = 1\nvalue = [0, 1]"] ;
626 -> 627 ;
628 [label="Profit2 <= -27.845\ngini = 0.08\nsamples = 1556\nvalue = [1491, 65]"] ;
626 -> 628 ;
629 [label="Profit2 <= -27.96\ngini = 0.346\nsamples = 9\nvalue = [7, 2]"] ;
628 -> 629 ;
630 [label="gini = 0.0\nsamples = 7\nvalue = [7, 0]"] ;
629 -> 630 ;
631 [label="gini = 0.0\nsamples = 2\nvalue = [0, 2]"] ;
629 -> 631 ;
632 [label="Product.ID <= 270.5\ngini = 0.078\nsamples = 1547\nvalue = [1484, 63]"] ;
628 -> 632 ;
633 [label="Product.ID <= 234.0\ngini = 0.225\nsamples = 31\nvalue = [27, 4]"] ;
632 -> 633 ;
634 [label="Profit2 <= 36.105\ngini = 0.08\nsamples = 24\nvalue = [23, 1]"] ;
633 -> 634 ;
635 [label="gini = 0.0\nsamples = 22\nvalue = [22, 0]"] ;
634 -> 635 ;
636 [label="Order.Priority <= 1.5\ngini = 0.5\nsamples = 2\nvalue = [1, 1]"] ;
634 -> 636 ;
637 [label="gini = 0.0\nsamples = 1\nvalue = [0, 1]"] ;
636 -> 637 ;
638 [label="gini = 0.0\nsamples = 1\nvalue = [1, 0]"] ;
636 -> 638 ;
639 [label="Shipping.Cost <= 19.225\ngini = 0.49\nsamples = 7\nvalue = [4, 3]"] ;
633 -> 639 ;
640 [label="Sales2 <= 50.62\ngini = 0.375\nsamples = 4\nvalue = [1, 3]"] ;
639 -> 640 ;
641 [label="gini = 0.0\nsamples = 1\nvalue = [1, 0]"] ;
640 -> 641 ;
642 [label="gini = 0.0\nsamples = 3\nvalue = [0, 3]"] ;
640 -> 642 ;
643 [label="gini = 0.0\nsamples = 3\nvalue = [3, 0]"] ;
639 -> 643 ;
644 [label="Ship.Mode <= 0.5\ngini = 0.075\nsamples = 1516\nvalue = [1457, 59]"] ;
632 -> 644 ;
645 [label="Region_x <= 19.5\ngini = 0.13\nsamples = 186\nvalue = [173, 13]"] ;
644 -> 645 ;
646 [label="Sales2 <= 8.82\ngini = 0.018\nsamples = 111\nvalue = [110, 1]"] ;
645 -> 646 ;
647 [label="Profit2 <= 3.57\ngini = 0.105\nsamples = 18\nvalue = [17, 1]"] ;
646 -> 647 ;
648 [label="gini = 0.0\nsamples = 17\nvalue = [17, 0]"] ;
647 -> 648 ;
649 [label="gini = 0.0\nsamples = 1\nvalue = [0, 1]"] ;
647 -> 649 ;
650 [label="gini = 0.0\nsamples = 93\nvalue = [93, 0]"] ;
646 -> 650 ;
651 [label="Shipping.Cost <= 9.61\ngini = 0.269\nsamples = 75\nvalue = [63, 12]"] ;
645 -> 651 ;
652 [label="Shipping.Cost <= 1.285\ngini = 0.172\nsamples = 63\nvalue = [57, 6]"] ;
651 -> 652 ;
653 [label="Product.ID <= 1667.5\ngini = 0.48\nsamples = 5\nvalue = [3, 2]"] ;
652 -> 653 ;
654 [label="gini = 0.0\nsamples = 3\nvalue = [3, 0]"] ;
653 -> 654 ;
655 [label="gini = 0.0\nsamples = 2\nvalue = [0, 2]"] ;
653 -> 655 ;
656 [label="Quantity <= 3.0\ngini = 0.128\nsamples = 58\nvalue = [54, 4]"] ;
652 -> 656 ;
657 [label="Sub.Category <= 13.0\ngini = 0.074\nsamples = 52\nvalue = [50, 2]"] ;
656 -> 657 ;
658 [label="gini = 0.0\nsamples = 42\nvalue = [42, 0]"] ;
657 -> 658 ;
659 [label="Profit2 <= -18.08\ngini = 0.32\nsamples = 10\nvalue = [8, 2]"] ;
657 -> 659 ;
660 [label="gini = 0.0\nsamples = 1\nvalue = [0, 1]"] ;
659 -> 660 ;
661 [label="Quantity <= 1.5\ngini = 0.198\nsamples = 9\nvalue = [8, 1]"] ;
659 -> 661 ;
662 [label="gini = 0.0\nsamples = 7\nvalue = [7, 0]"] ;
661 -> 662 ;
663 [label="Profit2 <= -0.635\ngini = 0.5\nsamples = 2\nvalue = [1, 1]"] ;
661 -> 663 ;
664 [label="gini = 0.0\nsamples = 1\nvalue = [0, 1]"] ;
663 -> 664 ;
665 [label="gini = 0.0\nsamples = 1\nvalue = [1, 0]"] ;
663 -> 665 ;
666 [label="Shipping.Cost <= 4.13\ngini = 0.444\nsamples = 6\nvalue = [4, 2]"] ;
656 -> 666 ;
667 [label="Shipping.Cost <= 1.63\ngini = 0.444\nsamples = 3\nvalue = [1, 2]"] ;
666 -> 667 ;
668 [label="gini = 0.0\nsamples = 1\nvalue = [1, 0]"] ;
667 -> 668 ;
669 [label="gini = 0.0\nsamples = 2\nvalue = [0, 2]"] ;
667 -> 669 ;
670 [label="gini = 0.0\nsamples = 3\nvalue = [3, 0]"] ;
666 -> 670 ;
671 [label="ProcessTime <= 1.5\ngini = 0.5\nsamples = 12\nvalue = [6, 6]"] ;
651 -> 671 ;
672 [label="gini = 0.0\nsamples = 4\nvalue = [4, 0]"] ;
671 -> 672 ;
673 [label="Shipping.Cost <= 37.285\ngini = 0.375\nsamples = 8\nvalue = [2, 6]"] ;
671 -> 673 ;
674 [label="gini = 0.0\nsamples = 6\nvalue = [0, 6]"] ;
673 -> 674 ;
675 [label="gini = 0.0\nsamples = 2\nvalue = [2, 0]"] ;
673 -> 675 ;
676 [label="Market <= 0.5\ngini = 0.067\nsamples = 1330\nvalue = [1284, 46]"] ;
644 -> 676 ;
677 [label="Quantity <= 7.0\ngini = 0.102\nsamples = 315\nvalue = [298, 17]"] ;
676 -> 677 ;
678 [label="Sales2 <= 6.67\ngini = 0.097\nsamples = 314\nvalue = [298, 16]"] ;
677 -> 678 ;
679 [label="gini = 0.0\nsamples = 78\nvalue = [78, 0]"] ;
678 -> 679 ;
680 [label="Sales2 <= 6.85\ngini = 0.126\nsamples = 236\nvalue = [220, 16]"] ;
678 -> 680 ;
681 [label="Shipping.Cost <= 1.295\ngini = 0.5\nsamples = 4\nvalue = [2, 2]"] ;
680 -> 681 ;
682 [label="gini = 0.0\nsamples = 1\nvalue = [1, 0]"] ;
681 -> 682 ;
683 [label="Shipping.Cost <= 1.615\ngini = 0.444\nsamples = 3\nvalue = [1, 2]"] ;
681 -> 683 ;
684 [label="gini = 0.0\nsamples = 2\nvalue = [0, 2]"] ;
683 -> 684 ;
685 [label="gini = 0.0\nsamples = 1\nvalue = [1, 0]"] ;
683 -> 685 ;
686 [label="Profit2 <= -26.345\ngini = 0.113\nsamples = 232\nvalue = [218, 14]"] ;
680 -> 686 ;
687 [label="Product.ID <= 1466.0\ngini = 0.444\nsamples = 3\nvalue = [2, 1]"] ;
686 -> 687 ;
688 [label="gini = 0.0\nsamples = 1\nvalue = [0, 1]"] ;
687 -> 688 ;
689 [label="gini = 0.0\nsamples = 2\nvalue = [2, 0]"] ;
687 -> 689 ;
690 [label="Sales2 <= 8.56\ngini = 0.107\nsamples = 229\nvalue = [216, 13]"] ;
686 -> 690 ;
691 [label="Profit2 <= -2.16\ngini = 0.278\nsamples = 18\nvalue = [15, 3]"] ;
690 -> 691 ;
692 [label="Profit2 <= -16.71\ngini = 0.208\nsamples = 17\nvalue = [15, 2]"] ;
691 -> 692 ;
693 [label="Shipping.Cost <= 1.265\ngini = 0.5\nsamples = 2\nvalue = [1, 1]"] ;
692 -> 693 ;
694 [label="gini = 0.0\nsamples = 1\nvalue = [1, 0]"] ;
693 -> 694 ;
695 [label="gini = 0.0\nsamples = 1\nvalue = [0, 1]"] ;
693 -> 695 ;
696 [label="Product.ID <= 2341.5\ngini = 0.124\nsamples = 15\nvalue = [14, 1]"] ;
692 -> 696 ;
697 [label="gini = 0.0\nsamples = 12\nvalue = [12, 0]"] ;
696 -> 697 ;
698 [label="Sales2 <= 7.83\ngini = 0.444\nsamples = 3\nvalue = [2, 1]"] ;
696 -> 698 ;
699 [label="gini = 0.0\nsamples = 2\nvalue = [2, 0]"] ;
698 -> 699 ;
700 [label="gini = 0.0\nsamples = 1\nvalue = [0, 1]"] ;
698 -> 700 ;
701 [label="gini = 0.0\nsamples = 1\nvalue = [0, 1]"] ;
691 -> 701 ;
702 [label="Shipping.Cost <= 8.37\ngini = 0.09\nsamples = 211\nvalue = [201, 10]"] ;
690 -> 702 ;
703 [label="Shipping.Cost <= 1.305\ngini = 0.064\nsamples = 181\nvalue = [175, 6]"] ;
702 -> 703 ;
704 [label="Shipping.Cost <= 1.18\ngini = 0.208\nsamples = 17\nvalue = [15, 2]"] ;
703 -> 704 ;
705 [label="gini = 0.0\nsamples = 11\nvalue = [11, 0]"] ;
704 -> 705 ;
706 [label="Product.ID <= 1644.0\ngini = 0.444\nsamples = 6\nvalue = [4, 2]"] ;
704 -> 706 ;
707 [label="gini = 0.0\nsamples = 4\nvalue = [4, 0]"] ;
706 -> 707 ;
708 [label="gini = 0.0\nsamples = 2\nvalue = [0, 2]"] ;
706 -> 708 ;
709 [label="Shipping.Cost <= 1.825\ngini = 0.048\nsamples = 164\nvalue = [160, 4]"] ;
703 -> 709 ;
710 [label="gini = 0.0\nsamples = 63\nvalue = [63, 0]"] ;
709 -> 710 ;
711 [label="Shipping.Cost <= 1.84\ngini = 0.076\nsamples = 101\nvalue = [97, 4]"] ;
709 -> 711 ;
712 [label="Profit2 <= -15.57\ngini = 0.5\nsamples = 2\nvalue = [1, 1]"] ;
711 -> 712 ;
713 [label="gini = 0.0\nsamples = 1\nvalue = [1, 0]"] ;
712 -> 713 ;
714 [label="gini = 0.0\nsamples = 1\nvalue = [0, 1]"] ;
712 -> 714 ;
715 [label="Shipping.Cost <= 3.355\ngini = 0.059\nsamples = 99\nvalue = [96, 3]"] ;
711 -> 715 ;
716 [label="Shipping.Cost <= 3.345\ngini = 0.101\nsamples = 56\nvalue = [53, 3]"] ;
715 -> 716 ;
717 [label="Sales2 <= 49.875\ngini = 0.07\nsamples = 55\nvalue = [53, 2]"] ;
716 -> 717 ;
718 [label="Sub.Category <= 14.5\ngini = 0.038\nsamples = 52\nvalue = [51, 1]"] ;
717 -> 718 ;
719 [label="gini = 0.0\nsamples = 48\nvalue = [48, 0]"] ;
718 -> 719 ;
720 [label="Product.ID <= 2815.0\ngini = 0.375\nsamples = 4\nvalue = [3, 1]"] ;
718 -> 720 ;
721 [label="gini = 0.0\nsamples = 3\nvalue = [3, 0]"] ;
720 -> 721 ;
722 [label="gini = 0.0\nsamples = 1\nvalue = [0, 1]"] ;
720 -> 722 ;
723 [label="Sales2 <= 50.55\ngini = 0.444\nsamples = 3\nvalue = [2, 1]"] ;
717 -> 723 ;
724 [label="gini = 0.0\nsamples = 1\nvalue = [0, 1]"] ;
723 -> 724 ;
725 [label="gini = 0.0\nsamples = 2\nvalue = [2, 0]"] ;
723 -> 725 ;
726 [label="gini = 0.0\nsamples = 1\nvalue = [0, 1]"] ;
716 -> 726 ;
727 [label="gini = 0.0\nsamples = 43\nvalue = [43, 0]"] ;
715 -> 727 ;
728 [label="Shipping.Cost <= 8.5\ngini = 0.231\nsamples = 30\nvalue = [26, 4]"] ;
702 -> 728 ;
729 [label="gini = 0.0\nsamples = 1\nvalue = [0, 1]"] ;
728 -> 729 ;
730 [label="Sales2 <= 98.37\ngini = 0.185\nsamples = 29\nvalue = [26, 3]"] ;
728 -> 730 ;
731 [label="Quantity <= 3.0\ngini = 0.375\nsamples = 12\nvalue = [9, 3]"] ;
730 -> 731 ;
732 [label="Sales2 <= 97.68\ngini = 0.18\nsamples = 10\nvalue = [9, 1]"] ;
731 -> 732 ;
733 [label="gini = 0.0\nsamples = 9\nvalue = [9, 0]"] ;
732 -> 733 ;
734 [label="gini = 0.0\nsamples = 1\nvalue = [0, 1]"] ;
732 -> 734 ;
735 [label="gini = 0.0\nsamples = 2\nvalue = [0, 2]"] ;
731 -> 735 ;
736 [label="gini = 0.0\nsamples = 17\nvalue = [17, 0]"] ;
730 -> 736 ;
737 [label="gini = 0.0\nsamples = 1\nvalue = [0, 1]"] ;
677 -> 737 ;
738 [label="Shipping.Cost <= 49.24\ngini = 0.056\nsamples = 1015\nvalue = [986, 29]"] ;
676 -> 738 ;
739 [label="Shipping.Cost <= 1.355\ngini = 0.054\nsamples = 1010\nvalue = [982, 28]"] ;
738 -> 739 ;
740 [label="Shipping.Cost <= 1.275\ngini = 0.112\nsamples = 117\nvalue = [110, 7]"] ;
739 -> 740 ;
741 [label="Product.ID <= 1843.0\ngini = 0.047\nsamples = 83\nvalue = [81, 2]"] ;
740 -> 741 ;
742 [label="gini = 0.0\nsamples = 55\nvalue = [55, 0]"] ;
741 -> 742 ;
743 [label="Product.ID <= 1851.0\ngini = 0.133\nsamples = 28\nvalue = [26, 2]"] ;
741 -> 743 ;
744 [label="gini = 0.0\nsamples = 1\nvalue = [0, 1]"] ;
743 -> 744 ;
745 [label="Product.ID <= 1906.0\ngini = 0.071\nsamples = 27\nvalue = [26, 1]"] ;
743 -> 745 ;
746 [label="Profit2 <= -0.685\ngini = 0.444\nsamples = 3\nvalue = [2, 1]"] ;
745 -> 746 ;
747 [label="gini = 0.0\nsamples = 1\nvalue = [0, 1]"] ;
746 -> 747 ;
748 [label="gini = 0.0\nsamples = 2\nvalue = [2, 0]"] ;
746 -> 748 ;
749 [label="gini = 0.0\nsamples = 24\nvalue = [24, 0]"] ;
745 -> 749 ;
750 [label="Category <= 1.5\ngini = 0.251\nsamples = 34\nvalue = [29, 5]"] ;
740 -> 750 ;
751 [label="Product.ID <= 1102.5\ngini = 0.213\nsamples = 33\nvalue = [29, 4]"] ;
750 -> 751 ;
752 [label="Profit2 <= -9.225\ngini = 0.5\nsamples = 2\nvalue = [1, 1]"] ;
751 -> 752 ;
753 [label="gini = 0.0\nsamples = 1\nvalue = [1, 0]"] ;
752 -> 753 ;
754 [label="gini = 0.0\nsamples = 1\nvalue = [0, 1]"] ;
752 -> 754 ;
755 [label="Shipping.Cost <= 1.295\ngini = 0.175\nsamples = 31\nvalue = [28, 3]"] ;
751 -> 755 ;
756 [label="Profit2 <= -7.99\ngini = 0.375\nsamples = 8\nvalue = [6, 2]"] ;
755 -> 756 ;
757 [label="gini = 0.0\nsamples = 1\nvalue = [0, 1]"] ;
756 -> 757 ;
758 [label="Sub.Category <= 7.5\ngini = 0.245\nsamples = 7\nvalue = [6, 1]"] ;
756 -> 758 ;
759 [label="gini = 0.0\nsamples = 5\nvalue = [5, 0]"] ;
758 -> 759 ;
760 [label="Discount <= 0.3\ngini = 0.5\nsamples = 2\nvalue = [1, 1]"] ;
758 -> 760 ;
761 [label="gini = 0.0\nsamples = 1\nvalue = [0, 1]"] ;
760 -> 761 ;
762 [label="gini = 0.0\nsamples = 1\nvalue = [1, 0]"] ;
760 -> 762 ;
763 [label="Order.Priority <= 2.0\ngini = 0.083\nsamples = 23\nvalue = [22, 1]"] ;
755 -> 763 ;
764 [label="Shipping.Cost <= 1.315\ngini = 0.444\nsamples = 3\nvalue = [2, 1]"] ;
763 -> 764 ;
765 [label="gini = 0.0\nsamples = 2\nvalue = [2, 0]"] ;
764 -> 765 ;
766 [label="gini = 0.0\nsamples = 1\nvalue = [0, 1]"] ;
764 -> 766 ;
767 [label="gini = 0.0\nsamples = 20\nvalue = [20, 0]"] ;
763 -> 767 ;
768 [label="gini = 0.0\nsamples = 1\nvalue = [0, 1]"] ;
750 -> 768 ;
769 [label="Product.ID <= 516.0\ngini = 0.046\nsamples = 893\nvalue = [872, 21]"] ;
739 -> 769 ;
770 [label="Sales2 <= 20.445\ngini = 0.124\nsamples = 45\nvalue = [42, 3]"] ;
769 -> 770 ;
771 [label="Shipping.Cost <= 2.38\ngini = 0.444\nsamples = 6\nvalue = [4, 2]"] ;
770 -> 771 ;
772 [label="gini = 0.0\nsamples = 4\nvalue = [4, 0]"] ;
771 -> 772 ;
773 [label="gini = 0.0\nsamples = 2\nvalue = [0, 2]"] ;
771 -> 773 ;
774 [label="Shipping.Cost <= 2.28\ngini = 0.05\nsamples = 39\nvalue = [38, 1]"] ;
770 -> 774 ;
775 [label="Shipping.Cost <= 2.18\ngini = 0.245\nsamples = 7\nvalue = [6, 1]"] ;
774 -> 775 ;
776 [label="gini = 0.0\nsamples = 6\nvalue = [6, 0]"] ;
775 -> 776 ;
777 [label="gini = 0.0\nsamples = 1\nvalue = [0, 1]"] ;
775 -> 777 ;
778 [label="gini = 0.0\nsamples = 32\nvalue = [32, 0]"] ;
774 -> 778 ;
779 [label="Region_x <= 18.0\ngini = 0.042\nsamples = 848\nvalue = [830, 18]"] ;
769 -> 779 ;
780 [label="Profit2 <= -15.535\ngini = 0.061\nsamples = 474\nvalue = [459, 15]"] ;
779 -> 780 ;
781 [label="Sales2 <= 22.665\ngini = 0.278\nsamples = 12\nvalue = [10, 2]"] ;
780 -> 781 ;
782 [label="gini = 0.0\nsamples = 2\nvalue = [0, 2]"] ;
781 -> 782 ;
783 [label="gini = 0.0\nsamples = 10\nvalue = [10, 0]"] ;
781 -> 783 ;
784 [label="Product.ID <= 3274.5\ngini = 0.055\nsamples = 462\nvalue = [449, 13]"] ;
780 -> 784 ;
785 [label="Shipping.Cost <= 3.835\ngini = 0.048\nsamples = 448\nvalue = [437, 11]"] ;
784 -> 785 ;
786 [label="Shipping.Cost <= 3.82\ngini = 0.096\nsamples = 179\nvalue = [170, 9]"] ;
785 -> 786 ;
787 [label="Product.ID <= 2946.5\ngini = 0.086\nsamples = 178\nvalue = [170, 8]"] ;
786 -> 787 ;
788 [label="Sales2 <= 51.435\ngini = 0.076\nsamples = 176\nvalue = [169, 7]"] ;
787 -> 788 ;
789 [label="Ship.Mode <= 2.5\ngini = 0.051\nsamples = 152\nvalue = [148, 4]"] ;
788 -> 789 ;
790 [label="Product.ID <= 2814.0\ngini = 0.136\nsamples = 41\nvalue = [38, 3]"] ;
789 -> 790 ;
791 [label="Product.ID <= 1623.5\ngini = 0.1\nsamples = 38\nvalue = [36, 2]"] ;
790 -> 791 ;
792 [label="Profit2 <= 3.12\ngini = 0.278\nsamples = 12\nvalue = [10, 2]"] ;
791 -> 792 ;
793 [label="Product.ID <= 1432.5\ngini = 0.444\nsamples = 3\nvalue = [1, 2]"] ;
792 -> 793 ;
794 [label="gini = 0.0\nsamples = 1\nvalue = [1, 0]"] ;
793 -> 794 ;
795 [label="gini = 0.0\nsamples = 2\nvalue = [0, 2]"] ;
793 -> 795 ;
796 [label="gini = 0.0\nsamples = 9\nvalue = [9, 0]"] ;
792 -> 796 ;
797 [label="gini = 0.0\nsamples = 26\nvalue = [26, 0]"] ;
791 -> 797 ;
798 [label="Shipping.Cost <= 2.32\ngini = 0.444\nsamples = 3\nvalue = [2, 1]"] ;
790 -> 798 ;
799 [label="gini = 0.0\nsamples = 2\nvalue = [2, 0]"] ;
798 -> 799 ;
800 [label="gini = 0.0\nsamples = 1\nvalue = [0, 1]"] ;
798 -> 800 ;
801 [label="Quantity <= 3.5\ngini = 0.018\nsamples = 111\nvalue = [110, 1]"] ;
789 -> 801 ;
802 [label="gini = 0.0\nsamples = 100\nvalue = [100, 0]"] ;
801 -> 802 ;
803 [label="Sales2 <= 19.14\ngini = 0.165\nsamples = 11\nvalue = [10, 1]"] ;
801 -> 803 ;
804 [label="Quantity <= 4.5\ngini = 0.5\nsamples = 2\nvalue = [1, 1]"] ;
803 -> 804 ;
805 [label="gini = 0.0\nsamples = 1\nvalue = [0, 1]"] ;
804 -> 805 ;
806 [label="gini = 0.0\nsamples = 1\nvalue = [1, 0]"] ;
804 -> 806 ;
807 [label="gini = 0.0\nsamples = 9\nvalue = [9, 0]"] ;
803 -> 807 ;
808 [label="Sales2 <= 52.92\ngini = 0.219\nsamples = 24\nvalue = [21, 3]"] ;
788 -> 808 ;
809 [label="gini = 0.0\nsamples = 1\nvalue = [0, 1]"] ;
808 -> 809 ;
810 [label="Product.ID <= 1880.0\ngini = 0.159\nsamples = 23\nvalue = [21, 2]"] ;
808 -> 810 ;
811 [label="Product.ID <= 1784.5\ngini = 0.346\nsamples = 9\nvalue = [7, 2]"] ;
810 -> 811 ;
812 [label="gini = 0.0\nsamples = 7\nvalue = [7, 0]"] ;
811 -> 812 ;
813 [label="gini = 0.0\nsamples = 2\nvalue = [0, 2]"] ;
811 -> 813 ;
814 [label="gini = 0.0\nsamples = 14\nvalue = [14, 0]"] ;
810 -> 814 ;
815 [label="Profit2 <= 23.76\ngini = 0.5\nsamples = 2\nvalue = [1, 1]"] ;
787 -> 815 ;
816 [label="gini = 0.0\nsamples = 1\nvalue = [0, 1]"] ;
815 -> 816 ;
817 [label="gini = 0.0\nsamples = 1\nvalue = [1, 0]"] ;
815 -> 817 ;
818 [label="gini = 0.0\nsamples = 1\nvalue = [0, 1]"] ;
786 -> 818 ;
819 [label="Product.ID <= 1122.5\ngini = 0.015\nsamples = 269\nvalue = [267, 2]"] ;
785 -> 819 ;
820 [label="Product.ID <= 1118.0\ngini = 0.093\nsamples = 41\nvalue = [39, 2]"] ;
819 -> 820 ;
821 [label="Shipping.Cost <= 15.35\ngini = 0.049\nsamples = 40\nvalue = [39, 1]"] ;
820 -> 821 ;
822 [label="gini = 0.0\nsamples = 36\nvalue = [36, 0]"] ;
821 -> 822 ;
823 [label="Discount <= 0.1\ngini = 0.375\nsamples = 4\nvalue = [3, 1]"] ;
821 -> 823 ;
824 [label="gini = 0.0\nsamples = 3\nvalue = [3, 0]"] ;
823 -> 824 ;
825 [label="gini = 0.0\nsamples = 1\nvalue = [0, 1]"] ;
823 -> 825 ;
826 [label="gini = 0.0\nsamples = 1\nvalue = [0, 1]"] ;
820 -> 826 ;
827 [label="gini = 0.0\nsamples = 228\nvalue = [228, 0]"] ;
819 -> 827 ;
828 [label="ProcessTime <= 2.5\ngini = 0.245\nsamples = 14\nvalue = [12, 2]"] ;
784 -> 828 ;
829 [label="gini = 0.0\nsamples = 1\nvalue = [0, 1]"] ;
828 -> 829 ;
830 [label="Profit2 <= 8.4\ngini = 0.142\nsamples = 13\nvalue = [12, 1]"] ;
828 -> 830 ;
831 [label="Shipping.Cost <= 8.435\ngini = 0.444\nsamples = 3\nvalue = [2, 1]"] ;
830 -> 831 ;
832 [label="gini = 0.0\nsamples = 2\nvalue = [2, 0]"] ;
831 -> 832 ;
833 [label="gini = 0.0\nsamples = 1\nvalue = [0, 1]"] ;
831 -> 833 ;
834 [label="gini = 0.0\nsamples = 10\nvalue = [10, 0]"] ;
830 -> 834 ;
835 [label="Profit2 <= 9.57\ngini = 0.016\nsamples = 374\nvalue = [371, 3]"] ;
779 -> 835 ;
836 [label="Shipping.Cost <= 1.565\ngini = 0.007\nsamples = 282\nvalue = [281, 1]"] ;
835 -> 836 ;
837 [label="Shipping.Cost <= 1.555\ngini = 0.031\nsamples = 63\nvalue = [62, 1]"] ;
836 -> 837 ;
838 [label="gini = 0.0\nsamples = 62\nvalue = [62, 0]"] ;
837 -> 838 ;
839 [label="gini = 0.0\nsamples = 1\nvalue = [0, 1]"] ;
837 -> 839 ;
840 [label="gini = 0.0\nsamples = 219\nvalue = [219, 0]"] ;
836 -> 840 ;
841 [label="Profit2 <= 9.885\ngini = 0.043\nsamples = 92\nvalue = [90, 2]"] ;
835 -> 841 ;
842 [label="gini = 0.0\nsamples = 1\nvalue = [0, 1]"] ;
841 -> 842 ;
843 [label="Profit2 <= 12.6\ngini = 0.022\nsamples = 91\nvalue = [90, 1]"] ;
841 -> 843 ;
844 [label="Product.ID <= 2361.5\ngini = 0.198\nsamples = 9\nvalue = [8, 1]"] ;
843 -> 844 ;
845 [label="gini = 0.0\nsamples = 8\nvalue = [8, 0]"] ;
844 -> 845 ;
846 [label="gini = 0.0\nsamples = 1\nvalue = [0, 1]"] ;
844 -> 846 ;
847 [label="gini = 0.0\nsamples = 82\nvalue = [82, 0]"] ;
843 -> 847 ;
848 [label="Sales2 <= 284.055\ngini = 0.32\nsamples = 5\nvalue = [4, 1]"] ;
738 -> 848 ;
849 [label="gini = 0.0\nsamples = 1\nvalue = [0, 1]"] ;
848 -> 849 ;
850 [label="gini = 0.0\nsamples = 4\nvalue = [4, 0]"] ;
848 -> 850 ;
851 [label="gini = 0.0\nsamples = 1\nvalue = [0, 1]"] ;
625 -> 851 ;
852 [label="Product.ID <= 3505.0\ngini = 0.185\nsamples = 68\nvalue = [61, 7]"] ;
594 -> 852 ;
853 [label="Profit2 <= 6.225\ngini = 0.469\nsamples = 8\nvalue = [5, 3]"] ;
852 -> 853 ;
854 [label="Sales2 <= 43.135\ngini = 0.48\nsamples = 5\nvalue = [2, 3]"] ;
853 -> 854 ;
855 [label="Product.ID <= 3503.5\ngini = 0.444\nsamples = 3\nvalue = [2, 1]"] ;
854 -> 855 ;
856 [label="gini = 0.0\nsamples = 2\nvalue = [2, 0]"] ;
855 -> 856 ;
857 [label="gini = 0.0\nsamples = 1\nvalue = [0, 1]"] ;
855 -> 857 ;
858 [label="gini = 0.0\nsamples = 2\nvalue = [0, 2]"] ;
854 -> 858 ;
859 [label="gini = 0.0\nsamples = 3\nvalue = [3, 0]"] ;
853 -> 859 ;
860 [label="Shipping.Cost <= 1.73\ngini = 0.124\nsamples = 60\nvalue = [56, 4]"] ;
852 -> 860 ;
861 [label="gini = 0.0\nsamples = 1\nvalue = [0, 1]"] ;
860 -> 861 ;
862 [label="Profit2 <= 25.26\ngini = 0.097\nsamples = 59\nvalue = [56, 3]"] ;
860 -> 862 ;
863 [label="Shipping.Cost <= 44.905\ngini = 0.037\nsamples = 53\nvalue = [52, 1]"] ;
862 -> 863 ;
864 [label="gini = 0.0\nsamples = 49\nvalue = [49, 0]"] ;
863 -> 864 ;
865 [label="ProcessTime <= 1.5\ngini = 0.375\nsamples = 4\nvalue = [3, 1]"] ;
863 -> 865 ;
866 [label="gini = 0.0\nsamples = 1\nvalue = [0, 1]"] ;
865 -> 866 ;
867 [label="gini = 0.0\nsamples = 3\nvalue = [3, 0]"] ;
865 -> 867 ;
868 [label="Sales2 <= 174.57\ngini = 0.444\nsamples = 6\nvalue = [4, 2]"] ;
862 -> 868 ;
869 [label="Profit2 <= 35.055\ngini = 0.444\nsamples = 3\nvalue = [1, 2]"] ;
868 -> 869 ;
870 [label="gini = 0.0\nsamples = 2\nvalue = [0, 2]"] ;
869 -> 870 ;
871 [label="gini = 0.0\nsamples = 1\nvalue = [1, 0]"] ;
869 -> 871 ;
872 [label="gini = 0.0\nsamples = 3\nvalue = [3, 0]"] ;
868 -> 872 ;
873 [label="Shipping.Cost <= 1.09\ngini = 0.082\nsamples = 8758\nvalue = [8382, 376]"] ;
19 -> 873 ;
874 [label="Shipping.Cost <= 1.082\ngini = 0.191\nsamples = 56\nvalue = [50, 6]"] ;
873 -> 874 ;
875 [label="Sales2 <= 5.4\ngini = 0.113\nsamples = 50\nvalue = [47, 3]"] ;
874 -> 875 ;
876 [label="Profit2 <= -1.66\ngini = 0.375\nsamples = 8\nvalue = [6, 2]"] ;
875 -> 876 ;
877 [label="gini = 0.0\nsamples = 6\nvalue = [6, 0]"] ;
876 -> 877 ;
878 [label="gini = 0.0\nsamples = 2\nvalue = [0, 2]"] ;
876 -> 878 ;
879 [label="ProcessTime <= 5.5\ngini = 0.046\nsamples = 42\nvalue = [41, 1]"] ;
875 -> 879 ;
880 [label="gini = 0.0\nsamples = 38\nvalue = [38, 0]"] ;
879 -> 880 ;
881 [label="Sub.Category <= 11.0\ngini = 0.375\nsamples = 4\nvalue = [3, 1]"] ;
879 -> 881 ;
882 [label="gini = 0.0\nsamples = 3\nvalue = [3, 0]"] ;
881 -> 882 ;
883 [label="gini = 0.0\nsamples = 1\nvalue = [0, 1]"] ;
881 -> 883 ;
884 [label="Sales2 <= 16.03\ngini = 0.5\nsamples = 6\nvalue = [3, 3]"] ;
874 -> 884 ;
885 [label="gini = 0.0\nsamples = 2\nvalue = [2, 0]"] ;
884 -> 885 ;
886 [label="Order.Priority <= 2.5\ngini = 0.375\nsamples = 4\nvalue = [1, 3]"] ;
884 -> 886 ;
887 [label="gini = 0.0\nsamples = 1\nvalue = [1, 0]"] ;
886 -> 887 ;
888 [label="gini = 0.0\nsamples = 3\nvalue = [0, 3]"] ;
886 -> 888 ;
889 [label="Region_x <= 15.0\ngini = 0.081\nsamples = 8702\nvalue = [8332, 370]"] ;
873 -> 889 ;
890 [label="Profit2 <= 1.685\ngini = 0.075\nsamples = 6050\nvalue = [5813, 237]"] ;
889 -> 890 ;
891 [label="Discount <= 0.401\ngini = 0.092\nsamples = 2210\nvalue = [2103, 107]"] ;
890 -> 891 ;
892 [label="Shipping.Cost <= 18.744\ngini = 0.111\nsamples = 1516\nvalue = [1427, 89]"] ;
891 -> 892 ;
893 [label="Shipping.Cost <= 18.708\ngini = 0.123\nsamples = 1291\nvalue = [1206, 85]"] ;
892 -> 893 ;
894 [label="Discount <= 0.36\ngini = 0.122\nsamples = 1290\nvalue = [1206, 84]"] ;
893 -> 894 ;
895 [label="Profit2 <= 1.49\ngini = 0.086\nsamples = 686\nvalue = [655, 31]"] ;
894 -> 895 ;
896 [label="Shipping.Cost <= 18.525\ngini = 0.068\nsamples = 622\nvalue = [600, 22]"] ;
895 -> 896 ;
897 [label="Profit2 <= -1.415\ngini = 0.066\nsamples = 619\nvalue = [598, 21]"] ;
896 -> 897 ;
898 [label="ProcessTime <= 6.5\ngini = 0.019\nsamples = 207\nvalue = [205, 2]"] ;
897 -> 898 ;
899 [label="Quantity <= 4.5\ngini = 0.01\nsamples = 197\nvalue = [196, 1]"] ;
898 -> 899 ;
900 [label="gini = 0.0\nsamples = 162\nvalue = [162, 0]"] ;
899 -> 900 ;
901 [label="Sub.Category <= 13.0\ngini = 0.056\nsamples = 35\nvalue = [34, 1]"] ;
899 -> 901 ;
902 [label="gini = 0.0\nsamples = 30\nvalue = [30, 0]"] ;
901 -> 902 ;
903 [label="Region_x <= 3.0\ngini = 0.32\nsamples = 5\nvalue = [4, 1]"] ;
901 -> 903 ;
904 [label="ProcessTime <= 4.5\ngini = 0.5\nsamples = 2\nvalue = [1, 1]"] ;
903 -> 904 ;
905 [label="gini = 0.0\nsamples = 1\nvalue = [0, 1]"] ;
904 -> 905 ;
906 [label="gini = 0.0\nsamples = 1\nvalue = [1, 0]"] ;
904 -> 906 ;
907 [label="gini = 0.0\nsamples = 3\nvalue = [3, 0]"] ;
903 -> 907 ;
908 [label="Discount <= 0.25\ngini = 0.18\nsamples = 10\nvalue = [9, 1]"] ;
898 -> 908 ;
909 [label="gini = 0.0\nsamples = 9\nvalue = [9, 0]"] ;
908 -> 909 ;
910 [label="gini = 0.0\nsamples = 1\nvalue = [0, 1]"] ;
908 -> 910 ;
911 [label="Profit2 <= -1.345\ngini = 0.088\nsamples = 412\nvalue = [393, 19]"] ;
897 -> 911 ;
912 [label="gini = 0.0\nsamples = 1\nvalue = [0, 1]"] ;
911 -> 912 ;
913 [label="Product.ID <= 1205.0\ngini = 0.084\nsamples = 411\nvalue = [393, 18]"] ;
911 -> 913 ;
914 [label="Product.ID <= 1203.5\ngini = 0.21\nsamples = 67\nvalue = [59, 8]"] ;
913 -> 914 ;
915 [label="Sales2 <= 177.31\ngini = 0.19\nsamples = 66\nvalue = [59, 7]"] ;
914 -> 915 ;
916 [label="ProcessTime <= 4.5\ngini = 0.15\nsamples = 61\nvalue = [56, 5]"] ;
915 -> 916 ;
917 [label="Product.ID <= 1156.5\ngini = 0.051\nsamples = 38\nvalue = [37, 1]"] ;
916 -> 917 ;
918 [label="gini = 0.0\nsamples = 31\nvalue = [31, 0]"] ;
917 -> 918 ;
919 [label="Product.ID <= 1158.0\ngini = 0.245\nsamples = 7\nvalue = [6, 1]"] ;
917 -> 919 ;
920 [label="gini = 0.0\nsamples = 1\nvalue = [0, 1]"] ;
919 -> 920 ;
921 [label="gini = 0.0\nsamples = 6\nvalue = [6, 0]"] ;
919 -> 921 ;
922 [label="Sales2 <= 21.015\ngini = 0.287\nsamples = 23\nvalue = [19, 4]"] ;
916 -> 922 ;
923 [label="Sales2 <= 6.09\ngini = 0.444\nsamples = 9\nvalue = [6, 3]"] ;
922 -> 923 ;
924 [label="gini = 0.0\nsamples = 5\nvalue = [5, 0]"] ;
923 -> 924 ;
925 [label="Ship.Mode <= 2.5\ngini = 0.375\nsamples = 4\nvalue = [1, 3]"] ;
923 -> 925 ;
926 [label="gini = 0.0\nsamples = 1\nvalue = [1, 0]"] ;
925 -> 926 ;
927 [label="gini = 0.0\nsamples = 3\nvalue = [0, 3]"] ;
925 -> 927 ;
928 [label="Ship.Mode <= 2.5\ngini = 0.133\nsamples = 14\nvalue = [13, 1]"] ;
922 -> 928 ;
929 [label="Sales2 <= 118.82\ngini = 0.5\nsamples = 2\nvalue = [1, 1]"] ;
928 -> 929 ;
930 [label="gini = 0.0\nsamples = 1\nvalue = [0, 1]"] ;
929 -> 930 ;
931 [label="gini = 0.0\nsamples = 1\nvalue = [1, 0]"] ;
929 -> 931 ;
932 [label="gini = 0.0\nsamples = 12\nvalue = [12, 0]"] ;
928 -> 932 ;
933 [label="ProcessTime <= 5.0\ngini = 0.48\nsamples = 5\nvalue = [3, 2]"] ;
915 -> 933 ;
934 [label="gini = 0.0\nsamples = 2\nvalue = [0, 2]"] ;
933 -> 934 ;
935 [label="gini = 0.0\nsamples = 3\nvalue = [3, 0]"] ;
933 -> 935 ;
936 [label="gini = 0.0\nsamples = 1\nvalue = [0, 1]"] ;
914 -> 936 ;
937 [label="Profit2 <= 0.97\ngini = 0.056\nsamples = 344\nvalue = [334, 10]"] ;
913 -> 937 ;
938 [label="Profit2 <= 0.835\ngini = 0.081\nsamples = 238\nvalue = [228, 10]"] ;
937 -> 938 ;
939 [label="Ship.Mode <= 0.5\ngini = 0.055\nsamples = 213\nvalue = [207, 6]"] ;
938 -> 939 ;
940 [label="Product.ID <= 1305.0\ngini = 0.153\nsamples = 36\nvalue = [33, 3]"] ;
939 -> 940 ;
941 [label="Profit2 <= 0.6\ngini = 0.5\nsamples = 2\nvalue = [1, 1]"] ;
940 -> 941 ;
942 [label="gini = 0.0\nsamples = 1\nvalue = [1, 0]"] ;
941 -> 942 ;
943 [label="gini = 0.0\nsamples = 1\nvalue = [0, 1]"] ;
941 -> 943 ;
944 [label="Quantity <= 4.5\ngini = 0.111\nsamples = 34\nvalue = [32, 2]"] ;
940 -> 944 ;
945 [label="Market <= 2.5\ngini = 0.062\nsamples = 31\nvalue = [30, 1]"] ;
944 -> 945 ;
946 [label="Shipping.Cost <= 4.565\ngini = 0.198\nsamples = 9\nvalue = [8, 1]"] ;
945 -> 946 ;
947 [label="Profit2 <= 0.03\ngini = 0.444\nsamples = 3\nvalue = [2, 1]"] ;
946 -> 947 ;
948 [label="gini = 0.0\nsamples = 1\nvalue = [0, 1]"] ;
947 -> 948 ;
949 [label="gini = 0.0\nsamples = 2\nvalue = [2, 0]"] ;
947 -> 949 ;
950 [label="gini = 0.0\nsamples = 6\nvalue = [6, 0]"] ;
946 -> 950 ;
951 [label="gini = 0.0\nsamples = 22\nvalue = [22, 0]"] ;
945 -> 951 ;
952 [label="Sales2 <= 36.65\ngini = 0.444\nsamples = 3\nvalue = [2, 1]"] ;
944 -> 952 ;
953 [label="gini = 0.0\nsamples = 1\nvalue = [0, 1]"] ;
952 -> 953 ;
954 [label="gini = 0.0\nsamples = 2\nvalue = [2, 0]"] ;
952 -> 954 ;
955 [label="Profit2 <= 0.19\ngini = 0.033\nsamples = 177\nvalue = [174, 3]"] ;
939 -> 955 ;
956 [label="Profit2 <= 0.17\ngini = 0.072\nsamples = 80\nvalue = [77, 3]"] ;
955 -> 956 ;
957 [label="Sub.Category <= 14.5\ngini = 0.05\nsamples = 78\nvalue = [76, 2]"] ;
956 -> 957 ;
958 [label="Profit2 <= -0.445\ngini = 0.028\nsamples = 70\nvalue = [69, 1]"] ;
957 -> 958 ;
959 [label="Profit2 <= -0.495\ngini = 0.111\nsamples = 17\nvalue = [16, 1]"] ;
958 -> 959 ;
960 [label="gini = 0.0\nsamples = 16\nvalue = [16, 0]"] ;
959 -> 960 ;
961 [label="gini = 0.0\nsamples = 1\nvalue = [0, 1]"] ;
959 -> 961 ;
962 [label="gini = 0.0\nsamples = 53\nvalue = [53, 0]"] ;
958 -> 962 ;
963 [label="Ship.Mode <= 2.5\ngini = 0.219\nsamples = 8\nvalue = [7, 1]"] ;
957 -> 963 ;
964 [label="Order.Priority <= 2.0\ngini = 0.444\nsamples = 3\nvalue = [2, 1]"] ;
963 -> 964 ;
965 [label="gini = 0.0\nsamples = 2\nvalue = [2, 0]"] ;
964 -> 965 ;
966 [label="gini = 0.0\nsamples = 1\nvalue = [0, 1]"] ;
964 -> 966 ;
967 [label="gini = 0.0\nsamples = 5\nvalue = [5, 0]"] ;
963 -> 967 ;
968 [label="Sales2 <= 15.05\ngini = 0.5\nsamples = 2\nvalue = [1, 1]"] ;
956 -> 968 ;
969 [label="gini = 0.0\nsamples = 1\nvalue = [0, 1]"] ;
968 -> 969 ;
970 [label="gini = 0.0\nsamples = 1\nvalue = [1, 0]"] ;
968 -> 970 ;
971 [label="gini = 0.0\nsamples = 97\nvalue = [97, 0]"] ;
955 -> 971 ;
972 [label="Sub.Category <= 1.0\ngini = 0.269\nsamples = 25\nvalue = [21, 4]"] ;
938 -> 972 ;
973 [label="gini = 0.0\nsamples = 1\nvalue = [0, 1]"] ;
972 -> 973 ;
974 [label="Region_x <= 0.5\ngini = 0.219\nsamples = 24\nvalue = [21, 3]"] ;
972 -> 974 ;
975 [label="gini = 0.0\nsamples = 1\nvalue = [0, 1]"] ;
974 -> 975 ;
976 [label="Order.Priority <= 0.5\ngini = 0.159\nsamples = 23\nvalue = [21, 2]"] ;
974 -> 976 ;
977 [label="Quantity <= 2.0\ngini = 0.444\nsamples = 3\nvalue = [2, 1]"] ;
976 -> 977 ;
978 [label="gini = 0.0\nsamples = 2\nvalue = [2, 0]"] ;
977 -> 978 ;
979 [label="gini = 0.0\nsamples = 1\nvalue = [0, 1]"] ;
977 -> 979 ;
980 [label="Profit2 <= 0.95\ngini = 0.095\nsamples = 20\nvalue = [19, 1]"] ;
976 -> 980 ;
981 [label="gini = 0.0\nsamples = 15\nvalue = [15, 0]"] ;
980 -> 981 ;
982 [label="Sub.Category <= 5.0\ngini = 0.32\nsamples = 5\nvalue = [4, 1]"] ;
980 -> 982 ;
983 [label="Quantity <= 2.5\ngini = 0.5\nsamples = 2\nvalue = [1, 1]"] ;
982 -> 983 ;
984 [label="gini = 0.0\nsamples = 1\nvalue = [0, 1]"] ;
983 -> 984 ;
985 [label="gini = 0.0\nsamples = 1\nvalue = [1, 0]"] ;
983 -> 985 ;
986 [label="gini = 0.0\nsamples = 3\nvalue = [3, 0]"] ;
982 -> 986 ;
987 [label="gini = 0.0\nsamples = 106\nvalue = [106, 0]"] ;
937 -> 987 ;
988 [label="Product.ID <= 2580.0\ngini = 0.444\nsamples = 3\nvalue = [2, 1]"] ;
896 -> 988 ;
989 [label="gini = 0.0\nsamples = 2\nvalue = [2, 0]"] ;
988 -> 989 ;
990 [label="gini = 0.0\nsamples = 1\nvalue = [0, 1]"] ;
988 -> 990 ;
991 [label="Order.Priority <= 0.5\ngini = 0.242\nsamples = 64\nvalue = [55, 9]"] ;
895 -> 991 ;
992 [label="Region_x <= 4.0\ngini = 0.49\nsamples = 7\nvalue = [4, 3]"] ;
991 -> 992 ;
993 [label="gini = 0.0\nsamples = 3\nvalue = [3, 0]"] ;
992 -> 993 ;
994 [label="Shipping.Cost <= 2.75\ngini = 0.375\nsamples = 4\nvalue = [1, 3]"] ;
992 -> 994 ;
995 [label="gini = 0.0\nsamples = 1\nvalue = [1, 0]"] ;
994 -> 995 ;
996 [label="gini = 0.0\nsamples = 3\nvalue = [0, 3]"] ;
994 -> 996 ;
997 [label="Product.ID <= 859.5\ngini = 0.188\nsamples = 57\nvalue = [51, 6]"] ;
991 -> 997 ;
998 [label="Discount <= 0.1\ngini = 0.5\nsamples = 4\nvalue = [2, 2]"] ;
997 -> 998 ;
999 [label="gini = 0.0\nsamples = 2\nvalue = [0, 2]"] ;
998 -> 999 ;
1000 [label="gini = 0.0\nsamples = 2\nvalue = [2, 0]"] ;
998 -> 1000 ;
1001 [label="Order.Priority <= 2.5\ngini = 0.14\nsamples = 53\nvalue = [49, 4]"] ;
997 -> 1001 ;
1002 [label="Shipping.Cost <= 1.28\ngini = 0.287\nsamples = 23\nvalue = [19, 4]"] ;
1001 -> 1002 ;
1003 [label="gini = 0.0\nsamples = 1\nvalue = [0, 1]"] ;
1002 -> 1003 ;
1004 [label="Product.ID <= 2850.0\ngini = 0.236\nsamples = 22\nvalue = [19, 3]"] ;
1002 -> 1004 ;
1005 [label="Sales2 <= 4.665\ngini = 0.172\nsamples = 21\nvalue = [19, 2]"] ;
1004 -> 1005 ;
1006 [label="gini = 0.0\nsamples = 1\nvalue = [0, 1]"] ;
1005 -> 1006 ;
1007 [label="Profit2 <= 1.675\ngini = 0.095\nsamples = 20\nvalue = [19, 1]"] ;
1005 -> 1007 ;
1008 [label="gini = 0.0\nsamples = 17\nvalue = [17, 0]"] ;
1007 -> 1008 ;
1009 [label="Ship.Mode <= 2.5\ngini = 0.444\nsamples = 3\nvalue = [2, 1]"] ;
1007 -> 1009 ;
1010 [label="gini = 0.0\nsamples = 2\nvalue = [2, 0]"] ;
1009 -> 1010 ;
1011 [label="gini = 0.0\nsamples = 1\nvalue = [0, 1]"] ;
1009 -> 1011 ;
1012 [label="gini = 0.0\nsamples = 1\nvalue = [0, 1]"] ;
1004 -> 1012 ;
1013 [label="gini = 0.0\nsamples = 30\nvalue = [30, 0]"] ;
1001 -> 1013 ;
1014 [label="Ship.Mode <= 2.5\ngini = 0.16\nsamples = 604\nvalue = [551, 53]"] ;
894 -> 1014 ;
1015 [label="Product.ID <= 1649.0\ngini = 0.069\nsamples = 251\nvalue = [242, 9]"] ;
1014 -> 1015 ;
1016 [label="gini = 0.0\nsamples = 99\nvalue = [99, 0]"] ;
1015 -> 1016 ;
1017 [label="Product.ID <= 1661.5\ngini = 0.111\nsamples = 152\nvalue = [143, 9]"] ;
1015 -> 1017 ;
1018 [label="Profit2 <= -19.93\ngini = 0.5\nsamples = 2\nvalue = [1, 1]"] ;
1017 -> 1018 ;
1019 [label="gini = 0.0\nsamples = 1\nvalue = [1, 0]"] ;
1018 -> 1019 ;
1020 [label="gini = 0.0\nsamples = 1\nvalue = [0, 1]"] ;
1018 -> 1020 ;
1021 [label="Profit2 <= -7.43\ngini = 0.101\nsamples = 150\nvalue = [142, 8]"] ;
1017 -> 1021 ;
1022 [label="Product.ID <= 1709.0\ngini = 0.026\nsamples = 75\nvalue = [74, 1]"] ;
1021 -> 1022 ;
1023 [label="Product.ID <= 1702.5\ngini = 0.245\nsamples = 7\nvalue = [6, 1]"] ;
1022 -> 1023 ;
1024 [label="gini = 0.0\nsamples = 6\nvalue = [6, 0]"] ;
1023 -> 1024 ;
1025 [label="gini = 0.0\nsamples = 1\nvalue = [0, 1]"] ;
1023 -> 1025 ;
1026 [label="gini = 0.0\nsamples = 68\nvalue = [68, 0]"] ;
1022 -> 1026 ;
1027 [label="Profit2 <= -7.405\ngini = 0.169\nsamples = 75\nvalue = [68, 7]"] ;
1021 -> 1027 ;
1028 [label="gini = 0.0\nsamples = 1\nvalue = [0, 1]"] ;
1027 -> 1028 ;
1029 [label="Sales2 <= 44.67\ngini = 0.149\nsamples = 74\nvalue = [68, 6]"] ;
1027 -> 1029 ;
1030 [label="ProcessTime <= 1.5\ngini = 0.089\nsamples = 64\nvalue = [61, 3]"] ;
1029 -> 1030 ;
1031 [label="ProcessTime <= 0.5\ngini = 0.346\nsamples = 9\nvalue = [7, 2]"] ;
1030 -> 1031 ;
1032 [label="Quantity <= 3.5\ngini = 0.219\nsamples = 8\nvalue = [7, 1]"] ;
1031 -> 1032 ;
1033 [label="gini = 0.0\nsamples = 7\nvalue = [7, 0]"] ;
1032 -> 1033 ;
1034 [label="gini = 0.0\nsamples = 1\nvalue = [0, 1]"] ;
1032 -> 1034 ;
1035 [label="gini = 0.0\nsamples = 1\nvalue = [0, 1]"] ;
1031 -> 1035 ;
1036 [label="Profit2 <= -4.94\ngini = 0.036\nsamples = 55\nvalue = [54, 1]"] ;
1030 -> 1036 ;
1037 [label="Profit2 <= -5.1\ngini = 0.198\nsamples = 9\nvalue = [8, 1]"] ;
1036 -> 1037 ;
1038 [label="gini = 0.0\nsamples = 8\nvalue = [8, 0]"] ;
1037 -> 1038 ;
1039 [label="gini = 0.0\nsamples = 1\nvalue = [0, 1]"] ;
1037 -> 1039 ;
1040 [label="gini = 0.0\nsamples = 46\nvalue = [46, 0]"] ;
1036 -> 1040 ;
1041 [label="Sales2 <= 46.95\ngini = 0.42\nsamples = 10\nvalue = [7, 3]"] ;
1029 -> 1041 ;
1042 [label="gini = 0.0\nsamples = 2\nvalue = [0, 2]"] ;
1041 -> 1042 ;
1043 [label="Profit2 <= -4.865\ngini = 0.219\nsamples = 8\nvalue = [7, 1]"] ;
1041 -> 1043 ;
1044 [label="gini = 0.0\nsamples = 1\nvalue = [0, 1]"] ;
1043 -> 1044 ;
1045 [label="gini = 0.0\nsamples = 7\nvalue = [7, 0]"] ;
1043 -> 1045 ;
1046 [label="Sales2 <= 323.52\ngini = 0.218\nsamples = 353\nvalue = [309, 44]"] ;
1014 -> 1046 ;
1047 [label="Shipping.Cost <= 1.957\ngini = 0.211\nsamples = 351\nvalue = [309, 42]"] ;
1046 -> 1047 ;
1048 [label="Profit2 <= -15.035\ngini = 0.301\nsamples = 119\nvalue = [97, 22]"] ;
1047 -> 1048 ;
1049 [label="gini = 0.0\nsamples = 2\nvalue = [0, 2]"] ;
1048 -> 1049 ;
1050 [label="Shipping.Cost <= 1.945\ngini = 0.283\nsamples = 117\nvalue = [97, 20]"] ;
1048 -> 1050 ;
1051 [label="Profit2 <= 1.145\ngini = 0.266\nsamples = 114\nvalue = [96, 18]"] ;
1050 -> 1051 ;
1052 [label="Product.ID <= 515.0\ngini = 0.256\nsamples = 113\nvalue = [96, 17]"] ;
1051 -> 1052 ;
1053 [label="Shipping.Cost <= 1.605\ngini = 0.48\nsamples = 10\nvalue = [6, 4]"] ;
1052 -> 1053 ;
1054 [label="Sales2 <= 8.3\ngini = 0.375\nsamples = 4\nvalue = [1, 3]"] ;
1053 -> 1054 ;
1055 [label="gini = 0.0\nsamples = 1\nvalue = [1, 0]"] ;
1054 -> 1055 ;
1056 [label="gini = 0.0\nsamples = 3\nvalue = [0, 3]"] ;
1054 -> 1056 ;
1057 [label="Sales2 <= 25.56\ngini = 0.278\nsamples = 6\nvalue = [5, 1]"] ;
1053 -> 1057 ;
1058 [label="gini = 0.0\nsamples = 4\nvalue = [4, 0]"] ;
1057 -> 1058 ;
1059 [label="Product.ID <= 479.0\ngini = 0.5\nsamples = 2\nvalue = [1, 1]"] ;
1057 -> 1059 ;
1060 [label="gini = 0.0\nsamples = 1\nvalue = [0, 1]"] ;
1059 -> 1060 ;
1061 [label="gini = 0.0\nsamples = 1\nvalue = [1, 0]"] ;
1059 -> 1061 ;
1062 [label="Profit2 <= -8.69\ngini = 0.221\nsamples = 103\nvalue = [90, 13]"] ;
1052 -> 1062 ;
1063 [label="gini = 0.0\nsamples = 20\nvalue = [20, 0]"] ;
1062 -> 1063 ;
1064 [label="Profit2 <= -7.055\ngini = 0.264\nsamples = 83\nvalue = [70, 13]"] ;
1062 -> 1064 ;
1065 [label="Quantity <= 2.5\ngini = 0.49\nsamples = 7\nvalue = [3, 4]"] ;
1064 -> 1065 ;
1066 [label="gini = 0.0\nsamples = 3\nvalue = [0, 3]"] ;
1065 -> 1066 ;
1067 [label="Shipping.Cost <= 1.469\ngini = 0.375\nsamples = 4\nvalue = [3, 1]"] ;
1065 -> 1067 ;
1068 [label="gini = 0.0\nsamples = 1\nvalue = [0, 1]"] ;
1067 -> 1068 ;
1069 [label="gini = 0.0\nsamples = 3\nvalue = [3, 0]"] ;
1067 -> 1069 ;
1070 [label="Shipping.Cost <= 1.438\ngini = 0.209\nsamples = 76\nvalue = [67, 9]"] ;
1064 -> 1070 ;
1071 [label="Profit2 <= -5.91\ngini = 0.054\nsamples = 36\nvalue = [35, 1]"] ;
1070 -> 1071 ;
1072 [label="Profit2 <= -6.235\ngini = 0.444\nsamples = 3\nvalue = [2, 1]"] ;
1071 -> 1072 ;
1073 [label="gini = 0.0\nsamples = 2\nvalue = [2, 0]"] ;
1072 -> 1073 ;
1074 [label="gini = 0.0\nsamples = 1\nvalue = [0, 1]"] ;
1072 -> 1074 ;
1075 [label="gini = 0.0\nsamples = 33\nvalue = [33, 0]"] ;
1071 -> 1075 ;
1076 [label="ProcessTime <= 5.5\ngini = 0.32\nsamples = 40\nvalue = [32, 8]"] ;
1070 -> 1076 ;
1077 [label="Region_x <= 8.0\ngini = 0.435\nsamples = 25\nvalue = [17, 8]"] ;
1076 -> 1077 ;
1078 [label="Shipping.Cost <= 1.524\ngini = 0.488\nsamples = 19\nvalue = [11, 8]"] ;
1077 -> 1078 ;
1079 [label="gini = 0.0\nsamples = 3\nvalue = [0, 3]"] ;
1078 -> 1079 ;
1080 [label="ProcessTime <= 4.5\ngini = 0.43\nsamples = 16\nvalue = [11, 5]"] ;
1078 -> 1080 ;
1081 [label="Profit2 <= 0.435\ngini = 0.198\nsamples = 9\nvalue = [8, 1]"] ;
1080 -> 1081 ;
1082 [label="gini = 0.0\nsamples = 8\nvalue = [8, 0]"] ;
1081 -> 1082 ;
1083 [label="gini = 0.0\nsamples = 1\nvalue = [0, 1]"] ;
1081 -> 1083 ;
1084 [label="Profit2 <= -0.82\ngini = 0.49\nsamples = 7\nvalue = [3, 4]"] ;
1080 -> 1084 ;
1085 [label="gini = 0.0\nsamples = 3\nvalue = [0, 3]"] ;
1084 -> 1085 ;
1086 [label="Profit2 <= -0.215\ngini = 0.375\nsamples = 4\nvalue = [3, 1]"] ;
1084 -> 1086 ;
1087 [label="gini = 0.0\nsamples = 2\nvalue = [2, 0]"] ;
1086 -> 1087 ;
1088 [label="Quantity <= 4.5\ngini = 0.5\nsamples = 2\nvalue = [1, 1]"] ;
1086 -> 1088 ;
1089 [label="gini = 0.0\nsamples = 1\nvalue = [0, 1]"] ;
1088 -> 1089 ;
1090 [label="gini = 0.0\nsamples = 1\nvalue = [1, 0]"] ;
1088 -> 1090 ;
1091 [label="gini = 0.0\nsamples = 6\nvalue = [6, 0]"] ;
1077 -> 1091 ;
1092 [label="gini = 0.0\nsamples = 15\nvalue = [15, 0]"] ;
1076 -> 1092 ;
1093 [label="gini = 0.0\nsamples = 1\nvalue = [0, 1]"] ;
1051 -> 1093 ;
1094 [label="Sub.Category <= 8.5\ngini = 0.444\nsamples = 3\nvalue = [1, 2]"] ;
1050 -> 1094 ;
1095 [label="gini = 0.0\nsamples = 2\nvalue = [0, 2]"] ;
1094 -> 1095 ;
1096 [label="gini = 0.0\nsamples = 1\nvalue = [1, 0]"] ;
1094 -> 1096 ;
1097 [label="Shipping.Cost <= 8.609\ngini = 0.158\nsamples = 232\nvalue = [212, 20]"] ;
1047 -> 1097 ;
1098 [label="Sales2 <= 37.605\ngini = 0.099\nsamples = 172\nvalue = [163, 9]"] ;
1097 -> 1098 ;
1099 [label="Sales2 <= 37.185\ngini = 0.24\nsamples = 43\nvalue = [37, 6]"] ;
1098 -> 1099 ;
1100 [label="Region_x <= 12.0\ngini = 0.21\nsamples = 42\nvalue = [37, 5]"] ;
1099 -> 1100 ;
1101 [label="Sub.Category <= 11.0\ngini = 0.064\nsamples = 30\nvalue = [29, 1]"] ;
1100 -> 1101 ;
1102 [label="gini = 0.0\nsamples = 21\nvalue = [21, 0]"] ;
1101 -> 1102 ;
1103 [label="Sub.Category <= 12.5\ngini = 0.198\nsamples = 9\nvalue = [8, 1]"] ;
1101 -> 1103 ;
1104 [label="Profit2 <= -3.28\ngini = 0.5\nsamples = 2\nvalue = [1, 1]"] ;
1103 -> 1104 ;
1105 [label="gini = 0.0\nsamples = 1\nvalue = [1, 0]"] ;
1104 -> 1105 ;
1106 [label="gini = 0.0\nsamples = 1\nvalue = [0, 1]"] ;
1104 -> 1106 ;
1107 [label="gini = 0.0\nsamples = 7\nvalue = [7, 0]"] ;
1103 -> 1107 ;
1108 [label="ProcessTime <= 5.5\ngini = 0.444\nsamples = 12\nvalue = [8, 4]"] ;
1100 -> 1108 ;
1109 [label="gini = 0.0\nsamples = 7\nvalue = [7, 0]"] ;
1108 -> 1109 ;
1110 [label="Shipping.Cost <= 2.67\ngini = 0.32\nsamples = 5\nvalue = [1, 4]"] ;
1108 -> 1110 ;
1111 [label="Shipping.Cost <= 2.488\ngini = 0.5\nsamples = 2\nvalue = [1, 1]"] ;
1110 -> 1111 ;
1112 [label="gini = 0.0\nsamples = 1\nvalue = [0, 1]"] ;
1111 -> 1112 ;
1113 [label="gini = 0.0\nsamples = 1\nvalue = [1, 0]"] ;
1111 -> 1113 ;
1114 [label="gini = 0.0\nsamples = 3\nvalue = [0, 3]"] ;
1110 -> 1114 ;
1115 [label="gini = 0.0\nsamples = 1\nvalue = [0, 1]"] ;
1099 -> 1115 ;
1116 [label="Quantity <= 9.5\ngini = 0.045\nsamples = 129\nvalue = [126, 3]"] ;
1098 -> 1116 ;
1117 [label="Product.ID <= 225.5\ngini = 0.031\nsamples = 126\nvalue = [124, 2]"] ;
1116 -> 1117 ;
1118 [label="Product.ID <= 213.0\ngini = 0.219\nsamples = 8\nvalue = [7, 1]"] ;
1117 -> 1118 ;
1119 [label="gini = 0.0\nsamples = 7\nvalue = [7, 0]"] ;
1118 -> 1119 ;
1120 [label="gini = 0.0\nsamples = 1\nvalue = [0, 1]"] ;
1118 -> 1120 ;
1121 [label="Profit2 <= -3.76\ngini = 0.017\nsamples = 118\nvalue = [117, 1]"] ;
1117 -> 1121 ;
1122 [label="gini = 0.0\nsamples = 96\nvalue = [96, 0]"] ;
1121 -> 1122 ;
1123 [label="Profit2 <= -3.695\ngini = 0.087\nsamples = 22\nvalue = [21, 1]"] ;
1121 -> 1123 ;
1124 [label="gini = 0.0\nsamples = 1\nvalue = [0, 1]"] ;
1123 -> 1124 ;
1125 [label="gini = 0.0\nsamples = 21\nvalue = [21, 0]"] ;
1123 -> 1125 ;
1126 [label="Shipping.Cost <= 3.44\ngini = 0.444\nsamples = 3\nvalue = [2, 1]"] ;
1116 -> 1126 ;
1127 [label="gini = 0.0\nsamples = 1\nvalue = [0, 1]"] ;
1126 -> 1127 ;
1128 [label="gini = 0.0\nsamples = 2\nvalue = [2, 0]"] ;
1126 -> 1128 ;
1129 [label="Category <= 1.5\ngini = 0.299\nsamples = 60\nvalue = [49, 11]"] ;
1097 -> 1129 ;
1130 [label="Sub.Category <= 6.0\ngini = 0.237\nsamples = 51\nvalue = [44, 7]"] ;
1129 -> 1130 ;
1131 [label="Product.ID <= 105.0\ngini = 0.358\nsamples = 30\nvalue = [23, 7]"] ;
1130 -> 1131 ;
1132 [label="gini = 0.0\nsamples = 7\nvalue = [7, 0]"] ;
1131 -> 1132 ;
1133 [label="ProcessTime <= 6.5\ngini = 0.423\nsamples = 23\nvalue = [16, 7]"] ;
1131 -> 1133 ;
1134 [label="Product.ID <= 138.5\ngini = 0.363\nsamples = 21\nvalue = [16, 5]"] ;
1133 -> 1134 ;
1135 [label="gini = 0.0\nsamples = 2\nvalue = [0, 2]"] ;
1134 -> 1135 ;
1136 [label="Quantity <= 5.5\ngini = 0.266\nsamples = 19\nvalue = [16, 3]"] ;
1134 -> 1136 ;
1137 [label="gini = 0.0\nsamples = 12\nvalue = [12, 0]"] ;
1136 -> 1137 ;
1138 [label="ProcessTime <= 5.5\ngini = 0.49\nsamples = 7\nvalue = [4, 3]"] ;
1136 -> 1138 ;
1139 [label="Shipping.Cost <= 12.689\ngini = 0.375\nsamples = 4\nvalue = [1, 3]"] ;
1138 -> 1139 ;
1140 [label="gini = 0.0\nsamples = 3\nvalue = [0, 3]"] ;
1139 -> 1140 ;
1141 [label="gini = 0.0\nsamples = 1\nvalue = [1, 0]"] ;
1139 -> 1141 ;
1142 [label="gini = 0.0\nsamples = 3\nvalue = [3, 0]"] ;
1138 -> 1142 ;
1143 [label="gini = 0.0\nsamples = 2\nvalue = [0, 2]"] ;
1133 -> 1143 ;
1144 [label="gini = 0.0\nsamples = 21\nvalue = [21, 0]"] ;
1130 -> 1144 ;
1145 [label="Region_x <= 6.0\ngini = 0.494\nsamples = 9\nvalue = [5, 4]"] ;
1129 -> 1145 ;
1146 [label="gini = 0.0\nsamples = 3\nvalue = [3, 0]"] ;
1145 -> 1146 ;
1147 [label="Product.ID <= 3535.5\ngini = 0.444\nsamples = 6\nvalue = [2, 4]"] ;
1145 -> 1147 ;
1148 [label="gini = 0.0\nsamples = 3\nvalue = [0, 3]"] ;
1147 -> 1148 ;
1149 [label="Product.ID <= 3632.0\ngini = 0.444\nsamples = 3\nvalue = [2, 1]"] ;
1147 -> 1149 ;
1150 [label="gini = 0.0\nsamples = 2\nvalue = [2, 0]"] ;
1149 -> 1150 ;
1151 [label="gini = 0.0\nsamples = 1\nvalue = [0, 1]"] ;
1149 -> 1151 ;
1152 [label="gini = 0.0\nsamples = 2\nvalue = [0, 2]"] ;
1046 -> 1152 ;
1153 [label="gini = 0.0\nsamples = 1\nvalue = [0, 1]"] ;
893 -> 1153 ;
1154 [label="Sub.Category <= 3.5\ngini = 0.035\nsamples = 225\nvalue = [221, 4]"] ;
892 -> 1154 ;
1155 [label="Region_x <= 2.0\ngini = 0.149\nsamples = 37\nvalue = [34, 3]"] ;
1154 -> 1155 ;
1156 [label="Sales2 <= 151.68\ngini = 0.444\nsamples = 6\nvalue = [4, 2]"] ;
1155 -> 1156 ;
1157 [label="gini = 0.0\nsamples = 4\nvalue = [4, 0]"] ;
1156 -> 1157 ;
1158 [label="gini = 0.0\nsamples = 2\nvalue = [0, 2]"] ;
1156 -> 1158 ;
1159 [label="Market <= 3.5\ngini = 0.062\nsamples = 31\nvalue = [30, 1]"] ;
1155 -> 1159 ;
1160 [label="gini = 0.0\nsamples = 29\nvalue = [29, 0]"] ;
1159 -> 1160 ;
1161 [label="Ship.Mode <= 1.5\ngini = 0.5\nsamples = 2\nvalue = [1, 1]"] ;
1159 -> 1161 ;
1162 [label="gini = 0.0\nsamples = 1\nvalue = [1, 0]"] ;
1161 -> 1162 ;
1163 [label="gini = 0.0\nsamples = 1\nvalue = [0, 1]"] ;
1161 -> 1163 ;
1164 [label="ProcessTime <= 0.5\ngini = 0.011\nsamples = 188\nvalue = [187, 1]"] ;
1154 -> 1164 ;
1165 [label="Sales2 <= 187.95\ngini = 0.105\nsamples = 18\nvalue = [17, 1]"] ;
1164 -> 1165 ;
1166 [label="Sales2 <= 163.585\ngini = 0.32\nsamples = 5\nvalue = [4, 1]"] ;
1165 -> 1166 ;
1167 [label="gini = 0.0\nsamples = 4\nvalue = [4, 0]"] ;
1166 -> 1167 ;
1168 [label="gini = 0.0\nsamples = 1\nvalue = [0, 1]"] ;
1166 -> 1168 ;
1169 [label="gini = 0.0\nsamples = 13\nvalue = [13, 0]"] ;
1165 -> 1169 ;
1170 [label="gini = 0.0\nsamples = 170\nvalue = [170, 0]"] ;
1164 -> 1170 ;
1171 [label="Shipping.Cost <= 1.224\ngini = 0.051\nsamples = 694\nvalue = [676, 18]"] ;
891 -> 1171 ;
1172 [label="Quantity <= 6.5\ngini = 0.165\nsamples = 44\nvalue = [40, 4]"] ;
1171 -> 1172 ;
1173 [label="Shipping.Cost <= 1.191\ngini = 0.133\nsamples = 42\nvalue = [39, 3]"] ;
1172 -> 1173 ;
1174 [label="Quantity <= 1.5\ngini = 0.059\nsamples = 33\nvalue = [32, 1]"] ;
1173 -> 1174 ;
1175 [label="Discount <= 0.65\ngini = 0.32\nsamples = 5\nvalue = [4, 1]"] ;
1174 -> 1175 ;
1176 [label="gini = 0.0\nsamples = 4\nvalue = [4, 0]"] ;
1175 -> 1176 ;
1177 [label="gini = 0.0\nsamples = 1\nvalue = [0, 1]"] ;
1175 -> 1177 ;
1178 [label="gini = 0.0\nsamples = 28\nvalue = [28, 0]"] ;
1174 -> 1178 ;
1179 [label="Quantity <= 3.5\ngini = 0.346\nsamples = 9\nvalue = [7, 2]"] ;
1173 -> 1179 ;
1180 [label="Discount <= 0.55\ngini = 0.219\nsamples = 8\nvalue = [7, 1]"] ;
1179 -> 1180 ;
1181 [label="Profit2 <= -7.415\ngini = 0.5\nsamples = 2\nvalue = [1, 1]"] ;
1180 -> 1181 ;
1182 [label="gini = 0.0\nsamples = 1\nvalue = [0, 1]"] ;
1181 -> 1182 ;
1183 [label="gini = 0.0\nsamples = 1\nvalue = [1, 0]"] ;
1181 -> 1183 ;
1184 [label="gini = 0.0\nsamples = 6\nvalue = [6, 0]"] ;
1180 -> 1184 ;
1185 [label="gini = 0.0\nsamples = 1\nvalue = [0, 1]"] ;
1179 -> 1185 ;
1186 [label="Sales2 <= 16.495\ngini = 0.5\nsamples = 2\nvalue = [1, 1]"] ;
1172 -> 1186 ;
1187 [label="gini = 0.0\nsamples = 1\nvalue = [1, 0]"] ;
1186 -> 1187 ;
1188 [label="gini = 0.0\nsamples = 1\nvalue = [0, 1]"] ;
1186 -> 1188 ;
1189 [label="Sub.Category <= 4.5\ngini = 0.042\nsamples = 650\nvalue = [636, 14]"] ;
1171 -> 1189 ;
1190 [label="Sales2 <= 2.4\ngini = 0.014\nsamples = 291\nvalue = [289, 2]"] ;
1189 -> 1190 ;
1191 [label="Profit2 <= -3.71\ngini = 0.165\nsamples = 11\nvalue = [10, 1]"] ;
1190 -> 1191 ;
1192 [label="gini = 0.0\nsamples = 1\nvalue = [0, 1]"] ;
1191 -> 1192 ;
1193 [label="gini = 0.0\nsamples = 10\nvalue = [10, 0]"] ;
1191 -> 1193 ;
1194 [label="Quantity <= 2.5\ngini = 0.007\nsamples = 280\nvalue = [279, 1]"] ;
1190 -> 1194 ;
1195 [label="Product.ID <= 1503.0\ngini = 0.023\nsamples = 86\nvalue = [85, 1]"] ;
1194 -> 1195 ;
1196 [label="gini = 0.0\nsamples = 58\nvalue = [58, 0]"] ;
1195 -> 1196 ;
1197 [label="Product.ID <= 1519.0\ngini = 0.069\nsamples = 28\nvalue = [27, 1]"] ;
1195 -> 1197 ;
1198 [label="Sales2 <= 9.965\ngini = 0.5\nsamples = 2\nvalue = [1, 1]"] ;
1197 -> 1198 ;
1199 [label="gini = 0.0\nsamples = 1\nvalue = [1, 0]"] ;
1198 -> 1199 ;
1200 [label="gini = 0.0\nsamples = 1\nvalue = [0, 1]"] ;
1198 -> 1200 ;
1201 [label="gini = 0.0\nsamples = 26\nvalue = [26, 0]"] ;
1197 -> 1201 ;
1202 [label="gini = 0.0\nsamples = 194\nvalue = [194, 0]"] ;
1194 -> 1202 ;
1203 [label="Product.ID <= 258.5\ngini = 0.065\nsamples = 359\nvalue = [347, 12]"] ;
1189 -> 1203 ;
1204 [label="Product.ID <= 243.5\ngini = 0.278\nsamples = 12\nvalue = [10, 2]"] ;
1203 -> 1204 ;
1205 [label="gini = 0.0\nsamples = 9\nvalue = [9, 0]"] ;
1204 -> 1205 ;
1206 [label="Shipping.Cost <= 25.087\ngini = 0.444\nsamples = 3\nvalue = [1, 2]"] ;
1204 -> 1206 ;
1207 [label="gini = 0.0\nsamples = 2\nvalue = [0, 2]"] ;
1206 -> 1207 ;
1208 [label="gini = 0.0\nsamples = 1\nvalue = [1, 0]"] ;
1206 -> 1208 ;
1209 [label="Profit2 <= -12.655\ngini = 0.056\nsamples = 347\nvalue = [337, 10]"] ;
1203 -> 1209 ;
1210 [label="Profit2 <= -12.8\ngini = 0.077\nsamples = 249\nvalue = [239, 10]"] ;
1209 -> 1210 ;
1211 [label="Sales2 <= 13.395\ngini = 0.07\nsamples = 248\nvalue = [239, 9]"] ;
1210 -> 1211 ;
1212 [label="Discount <= 0.55\ngini = 0.375\nsamples = 4\nvalue = [3, 1]"] ;
1211 -> 1212 ;
1213 [label="gini = 0.0\nsamples = 1\nvalue = [0, 1]"] ;
1212 -> 1213 ;
1214 [label="gini = 0.0\nsamples = 3\nvalue = [3, 0]"] ;
1212 -> 1214 ;
1215 [label="Region_x <= 7.0\ngini = 0.063\nsamples = 244\nvalue = [236, 8]"] ;
1211 -> 1215 ;
1216 [label="Product.ID <= 3467.5\ngini = 0.136\nsamples = 68\nvalue = [63, 5]"] ;
1215 -> 1216 ;
1217 [label="Shipping.Cost <= 54.748\ngini = 0.114\nsamples = 66\nvalue = [62, 4]"] ;
1216 -> 1217 ;
1218 [label="Quantity <= 8.0\ngini = 0.089\nsamples = 64\nvalue = [61, 3]"] ;
1217 -> 1218 ;
1219 [label="ProcessTime <= 6.5\ngini = 0.063\nsamples = 61\nvalue = [59, 2]"] ;
1218 -> 1219 ;
1220 [label="Shipping.Cost <= 35.276\ngini = 0.034\nsamples = 58\nvalue = [57, 1]"] ;
1219 -> 1220 ;
1221 [label="gini = 0.0\nsamples = 52\nvalue = [52, 0]"] ;
1220 -> 1221 ;
1222 [label="Product.ID <= 3239.5\ngini = 0.278\nsamples = 6\nvalue = [5, 1]"] ;
1220 -> 1222 ;
1223 [label="gini = 0.0\nsamples = 5\nvalue = [5, 0]"] ;
1222 -> 1223 ;
1224 [label="gini = 0.0\nsamples = 1\nvalue = [0, 1]"] ;
1222 -> 1224 ;
